[  1.54839484e+00   1.11102956e-01  -4.55405822e-02   1.81962346e-01
  -4.03904178e-02  -3.65086314e-02   7.49493220e-02   1.12794288e-01
  -1.39395779e-01  -1.79804709e-01   3.01252654e-02  -3.58601069e-01
   5.93706196e-02  -1.93068831e-01  -2.20644917e-01   3.13699304e-02
  -1.60224485e-01   1.26233523e-01   1.92105249e-02  -1.10006275e-01
   2.44719523e-01   3.42899333e-02  -3.81420851e-01  -2.98111902e-02
  -2.74632860e-02   2.43840022e-02   4.13427907e-02   2.96778334e-02
   1.62896644e-01  -2.30040901e-01  -1.17201879e-01   9.30672884e-02
   1.22662734e-01   5.41275291e-02   2.55780747e-01  -8.18647367e-02
  -5.90015302e-02   9.92633382e-02   1.57216947e-01   3.48882541e-01
   1.92896963e-01   1.04947458e-02  -3.55418946e-01  -2.45683298e-01
   4.88590058e-02  -3.90946156e-01  -2.96007832e-03   3.60217889e-03
   6.19850755e-02  -1.69058473e-01  -1.68523362e-01   1.66942374e-01
  -1.59174348e-01   4.25997172e-02   1.72638803e-02  -5.18415553e-02
  -1.82938911e-03   5.38419854e-02  -2.52840866e-01   1.67361014e-01
   7.25290947e-02  -8.12746536e-02  -2.09429770e-01   7.33343515e-02
  -1.93200658e-01   8.05657456e-01  -1.50209012e-01  -2.64318934e-01
  -5.48223973e-01   1.59932136e-01   6.41387700e-02   2.86484234e-02
   1.67465485e-01  -4.65885240e-02   3.98089296e-01   5.82090147e-02
  -6.76547894e-02  -1.44229720e-02   5.79625310e-03  -3.18338577e-02
  -3.26317248e-01   2.03826407e-01   9.24232924e-02  -1.58251629e-01
  -6.86891352e-02  -2.24687735e-02   3.09420513e-01   3.54719272e-02
  -7.56833990e-02  -7.82148373e-02   1.79080394e-01   1.56514498e-01
   1.10963622e-01  -7.65360495e-03  -5.25764885e-02   2.21268399e-02
   3.74617532e-02  -9.16975878e-01  -1.91930437e+01  -7.37218475e-01
   4.58878041e-01  -8.56215974e-02  -3.54159832e-02   1.34300273e-01
   1.89691738e+01  -5.38864727e-02  -1.08819919e-01   1.13495370e-02
   2.95646054e-02   9.30655448e-02  -8.74166295e-02  -7.09000327e-02
  -1.10572273e-02  -1.55415181e-02   1.98946837e-02  -3.57396350e-02
  -1.99256314e-02   8.96607125e-02   3.36268339e-01  -1.10726503e-01
   2.14919602e-02  -8.85771300e-04  -2.14257366e-01]

[  1.49208996e+00   2.66393265e-01   7.03010933e-03   1.99875600e-01
  -1.30503727e-02  -7.03622907e-03   4.57951279e-02   1.13143884e-01
  -2.24487632e-01  -1.35485407e-01   2.37087493e-01  -1.16910781e-01
   3.11061536e-02  -2.97927824e-01  -2.23978990e-01   5.01942224e-02
  -1.50120305e-01  -1.41073314e-01   1.90968021e-02  -7.95992186e-02
   3.68855075e-01   2.48208739e-01  -4.61138059e-01  -2.72721296e-02
  -3.69767162e-02   1.74911400e-02   5.29625126e-02   3.19933627e-02
   1.89105351e-01  -1.62896361e-01  -9.09299049e-02   6.63762317e-02
  -2.40944846e-02   2.66400554e-02   3.02432656e-01  -5.53188025e-02
  -8.53864628e-03   2.71567712e-02   1.31328133e-01   4.93634486e-01
   2.09613342e-01   1.61572536e-01  -6.01985655e-01  -3.17864464e-02
   1.23186257e-01  -3.78677722e-01  -6.57605074e-02   5.52520721e-03
   7.91595489e-02  -1.99673165e-01  -3.36510631e-01   2.03651582e-01
  -3.68460706e-01   6.38253201e-03   5.82113135e-02  -1.64878272e-01
   1.35320745e-01  -7.24294071e-02  -2.95303805e-01   1.00729955e+00
  -7.06216871e-01   1.22040227e-03  -1.50677196e-01  -3.01352854e-01
   1.60532340e-01   4.80113534e-01  -5.30838102e-02  -2.65371138e-01
  -7.54046849e-01   2.50143288e-01   1.03266750e-01   3.28768266e-02
   6.94259098e-02  -6.56251841e-02   6.68133818e-01   4.59889650e-02
  -6.66322911e-02  -3.35006480e-03  -7.33235045e-03   2.75293419e-02
  -1.65885178e-01   2.60471079e-02   8.11391668e-02  -2.36647090e-01
   3.76002283e-02  -5.28818299e-02   3.10892270e-01   5.12395398e-02
  -8.14582389e-02  -6.96078261e-02   7.15160309e-02   2.06225680e-01
   1.92825867e-01   4.29794114e-03  -3.67184424e-02   3.02591794e-02
   2.80112387e-02  -1.38030284e+00  -1.67423020e+01  -9.42087106e-01
   3.88136489e-01  -3.87614560e-01   5.57750162e-02   1.65124835e-01
   1.69313428e+01  -1.04837983e-01  -9.36588890e-02   2.08062327e-01
   2.71397756e-01   1.01699663e-01  -2.93042829e-01  -2.33455672e-01
   3.32167619e-03  -2.90947773e-02  -3.63672841e-02   4.52035459e-04
  -3.78161050e-02  -2.94535522e-02   1.19668327e+00  -8.98453899e-02
   4.63083609e-02  -1.07453093e-03  -5.32277700e-01]

[  1.89146965e+00   2.36260231e-01  -1.70769859e-02   1.31200746e-01
  -7.22731217e-02  -1.79812927e-02   5.80461063e-02   5.01400347e-02
  -2.62655996e-01  -6.41359298e-02  -4.65453910e-02  -3.20371460e-01
   4.32885119e-02  -2.61545252e-01  -1.49392880e-01   3.64635671e-02
  -1.52918793e-01   2.06950212e-01  -4.55438158e-03  -8.06169144e-02
   3.75371262e-01   2.61792116e-01  -4.81583836e-01  -4.65391392e-02
  -3.38535252e-02   5.59635334e-03   4.33146518e-02   2.52075369e-02
   7.23795279e-02  -1.32435363e-01  -1.05930309e-01   5.96229856e-02
  -4.08098141e-03  -5.09283976e-02   2.23238779e-01  -7.46817484e-02
  -2.69177169e-02   7.73213711e-02   1.59820304e-01   2.51630932e-01
   2.06505698e-01   8.89544038e-02  -2.54144684e-01  -6.54791807e-02
   7.23097963e-02  -4.43219873e-01   5.45396751e-03  -4.56202219e-03
   6.26748062e-02  -1.90529996e-01  -1.27713308e-01   1.07701569e-01
  -2.51532769e-01   4.71020741e-02  -2.85337900e-03  -9.94154140e-02
   7.93666826e-02  -8.17463567e-02  -1.60605040e-01   5.75430794e-01
  -2.67403274e-01  -8.88755220e-02  -2.35628540e-01  -4.44438056e-02
  -8.78713492e-02   5.89938309e-01  -2.41728708e-02  -2.76772470e-01
  -8.13850367e-01   1.52500828e-01   1.38021401e-01   3.31760086e-02
   1.47728947e-01  -5.05295839e-02   7.05452111e-01   3.76334335e-02
  -8.16340299e-02  -2.85973856e-02   7.87195597e-03  -1.17488535e-02
  -3.55856816e-01   2.81208979e-01  -8.06643576e-03  -2.94409286e-01
  -1.19585523e-02  -1.24596509e-01   4.59669012e-01   3.52755165e-02
  -1.13504556e-02  -9.16106498e-02   1.50487132e-01   1.16921562e-01
   1.09311934e-01   1.41594563e-02  -4.96029320e-03   3.70123532e-03
   1.55333807e-02  -1.39839367e+00  -2.15648910e+01  -1.10559432e+00
   4.53695421e-01  -3.38341717e-01   1.17183709e-01   1.23090913e-01
   2.12729121e+01  -1.50080165e-01  -3.33629886e-02   3.05162608e-01
   3.64316033e-01   1.01835434e-01  -4.08077178e-01  -8.84379878e-02
  -3.38350722e-02   2.24698508e-04   3.44717770e-02  -2.59604227e-02
  -4.16546646e-02   1.25358322e-01   6.93712225e-01  -1.37409470e-01
   3.80690907e-02  -2.29567788e-02  -3.07900866e-01]

[  1.10218052e+00   2.05770837e-01  -4.63605539e-02   1.71573278e-01
  -1.09860587e-01  -5.11834956e-02   6.77033276e-02   1.23019651e-01
  -2.35343773e-01  -1.79206909e-01   2.31574529e-02  -3.98985625e-01
   5.61065322e-02  -3.55318994e-02  -1.43226721e-01   6.78159406e-02
  -2.27140497e-01   1.47838652e-01  -6.40232332e-03  -1.09002601e-01
   2.08177674e-01   1.40257764e-01  -4.27701962e-01  -4.20825117e-02
  -2.77004226e-02   1.58459970e-02   3.18091545e-02   5.41900123e-02
   1.47105810e-02  -1.97262890e-01  -1.88899231e-01   1.38024795e-01
   1.23348391e-01  -8.45293710e-03   1.47108115e-01  -4.56734502e-02
  -1.49200331e-02   3.50126542e-02   4.76381850e-02   6.72220319e-01
   2.69873606e-01   4.56685840e-01  -1.08781350e+00  -6.25698731e-02
  -4.83747178e-02  -2.86764272e-01  -8.11201295e-02  -2.94786336e-02
   5.17122676e-02  -1.56485152e-01   2.76660891e-02   1.03565512e-02
  -1.95237572e-01   2.78580516e-02   1.33502005e-02  -5.58201316e-02
   4.23101728e-02  -1.04342981e-01   2.73802399e-02   2.61352338e-01
  -2.13460832e-01   3.67086565e-02  -9.29378393e-02   4.39088964e-02
  -2.39652207e-01   7.74174557e-01  -3.02715529e-01  -1.54458649e-01
  -1.22129992e-01   1.41640782e-01   9.97140573e-02   1.49461538e-02
   1.39992248e-01  -5.15190721e-02  -4.97195901e-02   3.78531262e-02
  -8.83777788e-02  -1.63466163e-02   4.19928910e-02  -3.08429247e-02
  -3.48185629e-01   2.74764864e-01  -1.48421543e-02  -2.29981094e-01
   1.13355715e-02  -3.88861306e-04   2.64626329e-01   2.77916249e-02
  -4.11159055e-02  -8.98919310e-02   4.55818898e-02   1.75543495e-01
   2.16043349e-01   2.20703547e-02   1.41179682e-02   1.78355477e-02
   6.22163247e-03  -5.76094817e-01  -2.28967656e+01  -3.67844201e-01
   6.98536136e-01  -2.34639693e-01  -6.26433022e-02   2.22688852e-01
   2.24697342e+01  -5.67062719e-02  -2.02682828e-02   1.51826035e-01
   2.20751512e-01   1.00824894e-01  -1.98624081e-01  -2.17545192e-01
  -3.62182455e-02  -3.37447610e-02   8.42699923e-02   7.98944249e-03
  -4.81584294e-02   1.64178365e-01   6.00673961e-01  -1.01191259e-01
   3.01837494e-02  -1.20106229e-02  -2.17223596e-01]

[  5.37603455e-01  -4.89156023e+02  -7.13343920e+00   2.55464711e+00
   5.86100658e+00  -4.20647609e+00   2.05447911e+00   1.53214386e+01
   5.14302515e+01  -4.78327046e+01   4.29947241e+01   4.95433765e+02
  -1.49883159e+01  -1.49783238e+01  -2.82065819e+01  -1.18721591e+00
   1.63845948e+00  -6.09676977e+01  -1.42624103e+00   4.23886695e+00
   5.98720957e+01  -8.56520197e+01   5.39222735e+01  -3.49361656e-02
  -6.58211538e-01   4.67468252e-01   2.59366039e-01  -8.14494899e-01
  -3.92440789e+01   1.22247752e+00   4.86080459e+00  -7.61499340e+00
  -1.25851362e+01  -3.87690186e-01   1.80157341e-01  -2.39850983e+00
   3.82549625e+00   9.66671910e+00   1.00377957e+01  -9.38752677e+01
   9.08637253e+00  -1.26081156e+02   2.18082717e+02  -2.67756203e+01
   2.02345074e+01  -4.80624608e+00  -3.23971572e+00  -9.09558725e-02
   1.12911998e-01  -7.46454878e-01   3.76539603e+01  -1.50044853e+00
   1.81599013e+01   1.18106675e+00  -4.22472158e-02  -6.10687592e-01
   4.58769050e-01  -3.70071442e-01   1.10708569e+00   2.55554131e+00
  -1.11008071e+01  -5.32857170e+00  -2.41223224e+00   9.04007378e+00
  -4.50095079e+00   1.68002881e+01   3.02133522e+01  -2.15404440e+01
  -1.24294096e+02  -1.43390464e+00   3.09248096e+00   6.40426716e-01
   1.40490934e+01   1.61032012e+00   1.24310399e+02   3.20788447e-01
  -4.30315296e-01  -1.48771513e+00  -2.87255729e+00  -1.19533685e-01
   1.12230219e+00  -1.27412020e+01   5.17053482e+00   3.88622822e+00
   5.77035860e-01  -7.13041875e-01  -4.21254482e+00  -5.71510624e-01
  -2.83983264e-01   1.05357233e-01   5.61810917e+00   1.14088094e+00
   4.23647512e+00   5.50268575e-01   2.79641227e+00  -1.96237223e+00
   1.85316565e-01  -4.77814848e+01  -9.18630459e+00   1.78710274e-01
   5.71709478e-01  -3.05880099e-01  -1.28775473e-01   2.50905420e-01
  -2.04439606e+00  -5.31202828e-02  -8.40709178e-02  -6.25505040e-02
   3.43363556e-02   6.63467879e-02  -7.88583922e-02  -2.82085736e-01
  -3.41068856e-02  -3.19762740e-02   5.26906571e-02   1.75253113e-02
  -5.96371597e-02   1.32830333e-01   6.42202974e-01  -3.53420388e-02
   4.22675368e-02  -1.69860339e-03  -2.30789687e-01]

