Fold: 0
Lambda: 0.5
[[  7.40216298e-01]
 [ -5.54979264e-02]
 [  1.06918148e-02]
 [  1.67370496e-01]
 [ -4.36889639e-02]
 [ -3.78113205e-02]
 [  6.91838014e-02]
 [  4.24256641e-02]
 [ -1.55082572e-01]
 [ -5.42502688e-02]
 [  3.57848017e-02]
 [ -1.07482884e-01]
 [  5.23847353e-02]
 [  2.04920962e-02]
 [ -1.53511410e-01]
 [  2.53750603e-02]
 [ -1.54374276e-01]
 [  1.01336617e-01]
 [  1.99991771e-02]
 [ -9.60186181e-02]
 [  4.54471015e-02]
 [ -4.34838614e-02]
 [ -2.28241403e-01]
 [ -2.50611572e-02]
 [ -2.66812945e-02]
 [  2.80953346e-02]
 [  4.24663455e-02]
 [  2.53099064e-02]
 [  2.24635830e-02]
 [ -1.86286086e-01]
 [ -1.08109732e-01]
 [  8.16646559e-02]
 [  1.03456141e-01]
 [  3.60174649e-02]
 [  1.92870294e-01]
 [ -7.08754337e-02]
 [ -5.08441942e-02]
 [  9.43734607e-02]
 [  1.11937096e-01]
 [  1.66330569e-01]
 [  1.24622782e-01]
 [ -1.21042412e-01]
 [ -4.98546026e-02]
 [ -2.48421565e-02]
 [ -5.68787673e-02]
 [ -2.40805926e-01]
 [ -1.06162266e-02]
 [ -6.32861800e-03]
 [  4.51380730e-02]
 [ -1.48822762e-01]
 [ -9.73468703e-02]
 [  1.81495239e-01]
 [ -1.18561253e-01]
 [  4.87289029e-02]
 [ -1.77210689e-02]
 [ -3.11415611e-02]
 [ -5.14395306e-03]
 [  1.70768989e-02]
 [ -6.91506795e-02]
 [  3.24941853e-02]
 [  6.55566072e-02]
 [ -5.87311225e-02]
 [ -1.56364827e-01]
 [ -5.76298013e-02]
 [ -4.44171695e-02]
 [  3.05488186e-01]
 [ -1.15214093e-01]
 [ -8.32088982e-02]
 [ -1.55028778e-01]
 [  1.30992852e-01]
 [  3.86943490e-02]
 [  1.92386645e-02]
 [  1.52729274e-01]
 [ -5.77802295e-02]
 [  5.15971491e-02]
 [  6.50193624e-02]
 [ -6.18746845e-02]
 [ -5.24377299e-03]
 [  1.07237642e-02]
 [ -2.90859457e-02]
 [ -1.34575835e-01]
 [  3.18649297e-02]
 [  9.38803237e-02]
 [ -1.55321738e-01]
 [ -1.38307663e-02]
 [ -8.50780334e-04]
 [  1.97737705e-01]
 [  5.26110090e-02]
 [ -6.82208443e-02]
 [ -8.02284696e-02]
 [  1.70362488e-01]
 [  1.56791619e-01]
 [  8.86312132e-02]
 [ -1.94846063e-02]
 [ -3.40040882e-02]
 [  2.84762370e-02]
 [  3.05142998e-02]
 [ -1.75666763e-02]
 [ -3.60082609e-03]
 [ -3.61034547e-02]
 [  7.08536705e-02]
 [ -4.45247833e-02]
 [  3.74328264e-02]
 [  8.12214190e-02]
 [ -5.62376839e-04]
 [ -6.08992240e-02]
 [ -7.66359072e-02]
 [ -4.51829352e-03]
 [  1.98736793e-02]
 [  8.12870244e-02]
 [ -2.12992368e-02]
 [ -3.15196941e-02]
 [  1.01549293e-03]
 [ -2.31390240e-02]
 [  2.46304130e-02]
 [ -2.63018705e-02]
 [ -1.94734242e-02]
 [  6.43003614e-02]
 [  2.28734428e-02]
 [ -2.48185950e-02]
 [  1.61152177e-02]
 [  5.72880878e-03]
 [ -9.30120152e-02]]

Fold: 1
Lambda: 0.5
[[  7.40216298e-01]
 [ -5.54979264e-02]
 [  1.06918148e-02]
 [  1.67370496e-01]
 [ -4.36889639e-02]
 [ -3.78113205e-02]
 [  6.91838014e-02]
 [  4.24256641e-02]
 [ -1.55082572e-01]
 [ -5.42502688e-02]
 [  3.57848017e-02]
 [ -1.07482884e-01]
 [  5.23847353e-02]
 [  2.04920962e-02]
 [ -1.53511410e-01]
 [  2.53750603e-02]
 [ -1.54374276e-01]
 [  1.01336617e-01]
 [  1.99991771e-02]
 [ -9.60186181e-02]
 [  4.54471015e-02]
 [ -4.34838614e-02]
 [ -2.28241403e-01]
 [ -2.50611572e-02]
 [ -2.66812945e-02]
 [  2.80953346e-02]
 [  4.24663455e-02]
 [  2.53099064e-02]
 [  2.24635830e-02]
 [ -1.86286086e-01]
 [ -1.08109732e-01]
 [  8.16646559e-02]
 [  1.03456141e-01]
 [  3.60174649e-02]
 [  1.92870294e-01]
 [ -7.08754337e-02]
 [ -5.08441942e-02]
 [  9.43734607e-02]
 [  1.11937096e-01]
 [  1.66330569e-01]
 [  1.24622782e-01]
 [ -1.21042412e-01]
 [ -4.98546026e-02]
 [ -2.48421565e-02]
 [ -5.68787673e-02]
 [ -2.40805926e-01]
 [ -1.06162266e-02]
 [ -6.32861800e-03]
 [  4.51380730e-02]
 [ -1.48822762e-01]
 [ -9.73468703e-02]
 [  1.81495239e-01]
 [ -1.18561253e-01]
 [  4.87289029e-02]
 [ -1.77210689e-02]
 [ -3.11415611e-02]
 [ -5.14395306e-03]
 [  1.70768989e-02]
 [ -6.91506795e-02]
 [  3.24941853e-02]
 [  6.55566072e-02]
 [ -5.87311225e-02]
 [ -1.56364827e-01]
 [ -5.76298013e-02]
 [ -4.44171695e-02]
 [  3.05488186e-01]
 [ -1.15214093e-01]
 [ -8.32088982e-02]
 [ -1.55028778e-01]
 [  1.30992852e-01]
 [  3.86943490e-02]
 [  1.92386645e-02]
 [  1.52729274e-01]
 [ -5.77802295e-02]
 [  5.15971491e-02]
 [  6.50193624e-02]
 [ -6.18746845e-02]
 [ -5.24377299e-03]
 [  1.07237642e-02]
 [ -2.90859457e-02]
 [ -1.34575835e-01]
 [  3.18649297e-02]
 [  9.38803237e-02]
 [ -1.55321738e-01]
 [ -1.38307663e-02]
 [ -8.50780334e-04]
 [  1.97737705e-01]
 [  5.26110090e-02]
 [ -6.82208443e-02]
 [ -8.02284696e-02]
 [  1.70362488e-01]
 [  1.56791619e-01]
 [  8.86312132e-02]
 [ -1.94846063e-02]
 [ -3.40040882e-02]
 [  2.84762370e-02]
 [  3.05142998e-02]
 [ -1.75666763e-02]
 [ -3.60082609e-03]
 [ -3.61034547e-02]
 [  7.08536705e-02]
 [ -4.45247833e-02]
 [  3.74328264e-02]
 [  8.12214190e-02]
 [ -5.62376839e-04]
 [ -6.08992240e-02]
 [ -7.66359072e-02]
 [ -4.51829352e-03]
 [  1.98736793e-02]
 [  8.12870244e-02]
 [ -2.12992368e-02]
 [ -3.15196941e-02]
 [  1.01549293e-03]
 [ -2.31390240e-02]
 [  2.46304130e-02]
 [ -2.63018705e-02]
 [ -1.94734242e-02]
 [  6.43003614e-02]
 [  2.28734428e-02]
 [ -2.48185950e-02]
 [  1.61152177e-02]
 [  5.72880878e-03]
 [ -9.30120152e-02]]

Fold: 2
Lambda: 0.5
[[  7.40216298e-01]
 [ -5.54979264e-02]
 [  1.06918148e-02]
 [  1.67370496e-01]
 [ -4.36889639e-02]
 [ -3.78113205e-02]
 [  6.91838014e-02]
 [  4.24256641e-02]
 [ -1.55082572e-01]
 [ -5.42502688e-02]
 [  3.57848017e-02]
 [ -1.07482884e-01]
 [  5.23847353e-02]
 [  2.04920962e-02]
 [ -1.53511410e-01]
 [  2.53750603e-02]
 [ -1.54374276e-01]
 [  1.01336617e-01]
 [  1.99991771e-02]
 [ -9.60186181e-02]
 [  4.54471015e-02]
 [ -4.34838614e-02]
 [ -2.28241403e-01]
 [ -2.50611572e-02]
 [ -2.66812945e-02]
 [  2.80953346e-02]
 [  4.24663455e-02]
 [  2.53099064e-02]
 [  2.24635830e-02]
 [ -1.86286086e-01]
 [ -1.08109732e-01]
 [  8.16646559e-02]
 [  1.03456141e-01]
 [  3.60174649e-02]
 [  1.92870294e-01]
 [ -7.08754337e-02]
 [ -5.08441942e-02]
 [  9.43734607e-02]
 [  1.11937096e-01]
 [  1.66330569e-01]
 [  1.24622782e-01]
 [ -1.21042412e-01]
 [ -4.98546026e-02]
 [ -2.48421565e-02]
 [ -5.68787673e-02]
 [ -2.40805926e-01]
 [ -1.06162266e-02]
 [ -6.32861800e-03]
 [  4.51380730e-02]
 [ -1.48822762e-01]
 [ -9.73468703e-02]
 [  1.81495239e-01]
 [ -1.18561253e-01]
 [  4.87289029e-02]
 [ -1.77210689e-02]
 [ -3.11415611e-02]
 [ -5.14395306e-03]
 [  1.70768989e-02]
 [ -6.91506795e-02]
 [  3.24941853e-02]
 [  6.55566072e-02]
 [ -5.87311225e-02]
 [ -1.56364827e-01]
 [ -5.76298013e-02]
 [ -4.44171695e-02]
 [  3.05488186e-01]
 [ -1.15214093e-01]
 [ -8.32088982e-02]
 [ -1.55028778e-01]
 [  1.30992852e-01]
 [  3.86943490e-02]
 [  1.92386645e-02]
 [  1.52729274e-01]
 [ -5.77802295e-02]
 [  5.15971491e-02]
 [  6.50193624e-02]
 [ -6.18746845e-02]
 [ -5.24377299e-03]
 [  1.07237642e-02]
 [ -2.90859457e-02]
 [ -1.34575835e-01]
 [  3.18649297e-02]
 [  9.38803237e-02]
 [ -1.55321738e-01]
 [ -1.38307663e-02]
 [ -8.50780334e-04]
 [  1.97737705e-01]
 [  5.26110090e-02]
 [ -6.82208443e-02]
 [ -8.02284696e-02]
 [  1.70362488e-01]
 [  1.56791619e-01]
 [  8.86312132e-02]
 [ -1.94846063e-02]
 [ -3.40040882e-02]
 [  2.84762370e-02]
 [  3.05142998e-02]
 [ -1.75666763e-02]
 [ -3.60082609e-03]
 [ -3.61034547e-02]
 [  7.08536705e-02]
 [ -4.45247833e-02]
 [  3.74328264e-02]
 [  8.12214190e-02]
 [ -5.62376839e-04]
 [ -6.08992240e-02]
 [ -7.66359072e-02]
 [ -4.51829352e-03]
 [  1.98736793e-02]
 [  8.12870244e-02]
 [ -2.12992368e-02]
 [ -3.15196941e-02]
 [  1.01549293e-03]
 [ -2.31390240e-02]
 [  2.46304130e-02]
 [ -2.63018705e-02]
 [ -1.94734242e-02]
 [  6.43003614e-02]
 [  2.28734428e-02]
 [ -2.48185950e-02]
 [  1.61152177e-02]
 [  5.72880878e-03]
 [ -9.30120152e-02]]

Fold: 3
Lambda: 0.5
[[  7.40216298e-01]
 [ -5.54979264e-02]
 [  1.06918148e-02]
 [  1.67370496e-01]
 [ -4.36889639e-02]
 [ -3.78113205e-02]
 [  6.91838014e-02]
 [  4.24256641e-02]
 [ -1.55082572e-01]
 [ -5.42502688e-02]
 [  3.57848017e-02]
 [ -1.07482884e-01]
 [  5.23847353e-02]
 [  2.04920962e-02]
 [ -1.53511410e-01]
 [  2.53750603e-02]
 [ -1.54374276e-01]
 [  1.01336617e-01]
 [  1.99991771e-02]
 [ -9.60186181e-02]
 [  4.54471015e-02]
 [ -4.34838614e-02]
 [ -2.28241403e-01]
 [ -2.50611572e-02]
 [ -2.66812945e-02]
 [  2.80953346e-02]
 [  4.24663455e-02]
 [  2.53099064e-02]
 [  2.24635830e-02]
 [ -1.86286086e-01]
 [ -1.08109732e-01]
 [  8.16646559e-02]
 [  1.03456141e-01]
 [  3.60174649e-02]
 [  1.92870294e-01]
 [ -7.08754337e-02]
 [ -5.08441942e-02]
 [  9.43734607e-02]
 [  1.11937096e-01]
 [  1.66330569e-01]
 [  1.24622782e-01]
 [ -1.21042412e-01]
 [ -4.98546026e-02]
 [ -2.48421565e-02]
 [ -5.68787673e-02]
 [ -2.40805926e-01]
 [ -1.06162266e-02]
 [ -6.32861800e-03]
 [  4.51380730e-02]
 [ -1.48822762e-01]
 [ -9.73468703e-02]
 [  1.81495239e-01]
 [ -1.18561253e-01]
 [  4.87289029e-02]
 [ -1.77210689e-02]
 [ -3.11415611e-02]
 [ -5.14395306e-03]
 [  1.70768989e-02]
 [ -6.91506795e-02]
 [  3.24941853e-02]
 [  6.55566072e-02]
 [ -5.87311225e-02]
 [ -1.56364827e-01]
 [ -5.76298013e-02]
 [ -4.44171695e-02]
 [  3.05488186e-01]
 [ -1.15214093e-01]
 [ -8.32088982e-02]
 [ -1.55028778e-01]
 [  1.30992852e-01]
 [  3.86943490e-02]
 [  1.92386645e-02]
 [  1.52729274e-01]
 [ -5.77802295e-02]
 [  5.15971491e-02]
 [  6.50193624e-02]
 [ -6.18746845e-02]
 [ -5.24377299e-03]
 [  1.07237642e-02]
 [ -2.90859457e-02]
 [ -1.34575835e-01]
 [  3.18649297e-02]
 [  9.38803237e-02]
 [ -1.55321738e-01]
 [ -1.38307663e-02]
 [ -8.50780334e-04]
 [  1.97737705e-01]
 [  5.26110090e-02]
 [ -6.82208443e-02]
 [ -8.02284696e-02]
 [  1.70362488e-01]
 [  1.56791619e-01]
 [  8.86312132e-02]
 [ -1.94846063e-02]
 [ -3.40040882e-02]
 [  2.84762370e-02]
 [  3.05142998e-02]
 [ -1.75666763e-02]
 [ -3.60082609e-03]
 [ -3.61034547e-02]
 [  7.08536705e-02]
 [ -4.45247833e-02]
 [  3.74328264e-02]
 [  8.12214190e-02]
 [ -5.62376839e-04]
 [ -6.08992240e-02]
 [ -7.66359072e-02]
 [ -4.51829352e-03]
 [  1.98736793e-02]
 [  8.12870244e-02]
 [ -2.12992368e-02]
 [ -3.15196941e-02]
 [  1.01549293e-03]
 [ -2.31390240e-02]
 [  2.46304130e-02]
 [ -2.63018705e-02]
 [ -1.94734242e-02]
 [  6.43003614e-02]
 [  2.28734428e-02]
 [ -2.48185950e-02]
 [  1.61152177e-02]
 [  5.72880878e-03]
 [ -9.30120152e-02]]

Fold: 4
Lambda: 0.5
[[  7.40216298e-01]
 [ -5.54979264e-02]
 [  1.06918148e-02]
 [  1.67370496e-01]
 [ -4.36889639e-02]
 [ -3.78113205e-02]
 [  6.91838014e-02]
 [  4.24256641e-02]
 [ -1.55082572e-01]
 [ -5.42502688e-02]
 [  3.57848017e-02]
 [ -1.07482884e-01]
 [  5.23847353e-02]
 [  2.04920962e-02]
 [ -1.53511410e-01]
 [  2.53750603e-02]
 [ -1.54374276e-01]
 [  1.01336617e-01]
 [  1.99991771e-02]
 [ -9.60186181e-02]
 [  4.54471015e-02]
 [ -4.34838614e-02]
 [ -2.28241403e-01]
 [ -2.50611572e-02]
 [ -2.66812945e-02]
 [  2.80953346e-02]
 [  4.24663455e-02]
 [  2.53099064e-02]
 [  2.24635830e-02]
 [ -1.86286086e-01]
 [ -1.08109732e-01]
 [  8.16646559e-02]
 [  1.03456141e-01]
 [  3.60174649e-02]
 [  1.92870294e-01]
 [ -7.08754337e-02]
 [ -5.08441942e-02]
 [  9.43734607e-02]
 [  1.11937096e-01]
 [  1.66330569e-01]
 [  1.24622782e-01]
 [ -1.21042412e-01]
 [ -4.98546026e-02]
 [ -2.48421565e-02]
 [ -5.68787673e-02]
 [ -2.40805926e-01]
 [ -1.06162266e-02]
 [ -6.32861800e-03]
 [  4.51380730e-02]
 [ -1.48822762e-01]
 [ -9.73468703e-02]
 [  1.81495239e-01]
 [ -1.18561253e-01]
 [  4.87289029e-02]
 [ -1.77210689e-02]
 [ -3.11415611e-02]
 [ -5.14395306e-03]
 [  1.70768989e-02]
 [ -6.91506795e-02]
 [  3.24941853e-02]
 [  6.55566072e-02]
 [ -5.87311225e-02]
 [ -1.56364827e-01]
 [ -5.76298013e-02]
 [ -4.44171695e-02]
 [  3.05488186e-01]
 [ -1.15214093e-01]
 [ -8.32088982e-02]
 [ -1.55028778e-01]
 [  1.30992852e-01]
 [  3.86943490e-02]
 [  1.92386645e-02]
 [  1.52729274e-01]
 [ -5.77802295e-02]
 [  5.15971491e-02]
 [  6.50193624e-02]
 [ -6.18746845e-02]
 [ -5.24377299e-03]
 [  1.07237642e-02]
 [ -2.90859457e-02]
 [ -1.34575835e-01]
 [  3.18649297e-02]
 [  9.38803237e-02]
 [ -1.55321738e-01]
 [ -1.38307663e-02]
 [ -8.50780334e-04]
 [  1.97737705e-01]
 [  5.26110090e-02]
 [ -6.82208443e-02]
 [ -8.02284696e-02]
 [  1.70362488e-01]
 [  1.56791619e-01]
 [  8.86312132e-02]
 [ -1.94846063e-02]
 [ -3.40040882e-02]
 [  2.84762370e-02]
 [  3.05142998e-02]
 [ -1.75666763e-02]
 [ -3.60082609e-03]
 [ -3.61034547e-02]
 [  7.08536705e-02]
 [ -4.45247833e-02]
 [  3.74328264e-02]
 [  8.12214190e-02]
 [ -5.62376839e-04]
 [ -6.08992240e-02]
 [ -7.66359072e-02]
 [ -4.51829352e-03]
 [  1.98736793e-02]
 [  8.12870244e-02]
 [ -2.12992368e-02]
 [ -3.15196941e-02]
 [  1.01549293e-03]
 [ -2.31390240e-02]
 [  2.46304130e-02]
 [ -2.63018705e-02]
 [ -1.94734242e-02]
 [  6.43003614e-02]
 [  2.28734428e-02]
 [ -2.48185950e-02]
 [  1.61152177e-02]
 [  5.72880878e-03]
 [ -9.30120152e-02]]

Fold: 0
Lambda: 1.0
[[ 0.51107203]
 [ 0.0391374 ]
 [ 0.02460249]
 [ 0.1666775 ]
 [-0.03576135]
 [-0.00558054]
 [ 0.05376425]
 [ 0.04497724]
 [-0.19732928]
 [-0.0449324 ]
 [ 0.14242869]
 [ 0.00100026]
 [ 0.02910578]
 [-0.01287104]
 [-0.14650773]
 [ 0.04018804]
 [-0.15905666]
 [-0.04897072]
 [ 0.02934371]
 [-0.07226186]
 [ 0.12301258]
 [ 0.03595873]
 [-0.20893372]
 [-0.02538023]
 [-0.03211359]
 [ 0.02454143]
 [ 0.05355868]
 [ 0.02833952]
 [ 0.01232363]
 [-0.12937666]
 [-0.07434101]
 [ 0.05430071]
 [ 0.00817626]
 [ 0.00698024]
 [ 0.20377586]
 [-0.0540309 ]
 [-0.00634328]
 [ 0.03320337]
 [ 0.07220915]
 [ 0.20334784]
 [ 0.15039291]
 [-0.11998524]
 [-0.05504936]
 [ 0.02150018]
 [-0.00646639]
 [-0.18658568]
 [-0.07270408]
 [-0.00070936]
 [ 0.06090261]
 [-0.17153426]
 [-0.17705028]
 [ 0.20074829]
 [-0.17510806]
 [ 0.00770151]
 [-0.00065972]
 [-0.03214638]
 [ 0.04349547]
 [-0.03313126]
 [-0.03541647]
 [ 0.17753858]
 [-0.11229738]
 [ 0.00302972]
 [-0.13522183]
 [-0.1218117 ]
 [ 0.01269698]
 [ 0.24939075]
 [-0.11902217]
 [-0.07449974]
 [-0.14533262]
 [ 0.17463263]
 [ 0.08115205]
 [ 0.02176214]
 [ 0.11937697]
 [-0.05982813]
 [ 0.06118996]
 [ 0.05107189]
 [-0.06245206]
 [ 0.01050832]
 [-0.00225291]
 [ 0.0300017 ]
 [-0.07496565]
 [ 0.0024869 ]
 [ 0.03554857]
 [-0.21060735]
 [ 0.04356976]
 [-0.00670086]
 [ 0.20078074]
 [ 0.06448642]
 [-0.07378448]
 [-0.07472344]
 [ 0.10914569]
 [ 0.18357175]
 [ 0.11426099]
 [-0.00807879]
 [-0.00912734]
 [ 0.0426246 ]
 [ 0.01469135]
 [ 0.00857861]
 [ 0.0625185 ]
 [-0.02578613]
 [ 0.12196194]
 [-0.10947149]
 [ 0.02370702]
 [ 0.09816859]
 [ 0.06546354]
 [-0.0951268 ]
 [-0.04658896]
 [ 0.07263957]
 [ 0.09501809]
 [ 0.08552349]
 [-0.05897517]
 [-0.14037358]
 [ 0.01038888]
 [-0.02411114]
 [-0.00593166]
 [ 0.00397194]
 [-0.04073459]
 [ 0.02105909]
 [ 0.14044856]
 [-0.02266413]
 [ 0.03905573]
 [ 0.01862154]
 [-0.19237935]]

Fold: 1
Lambda: 1.0
[[ 0.51107203]
 [ 0.0391374 ]
 [ 0.02460249]
 [ 0.1666775 ]
 [-0.03576135]
 [-0.00558054]
 [ 0.05376425]
 [ 0.04497724]
 [-0.19732928]
 [-0.0449324 ]
 [ 0.14242869]
 [ 0.00100026]
 [ 0.02910578]
 [-0.01287104]
 [-0.14650773]
 [ 0.04018804]
 [-0.15905666]
 [-0.04897072]
 [ 0.02934371]
 [-0.07226186]
 [ 0.12301258]
 [ 0.03595873]
 [-0.20893372]
 [-0.02538023]
 [-0.03211359]
 [ 0.02454143]
 [ 0.05355868]
 [ 0.02833952]
 [ 0.01232363]
 [-0.12937666]
 [-0.07434101]
 [ 0.05430071]
 [ 0.00817626]
 [ 0.00698024]
 [ 0.20377586]
 [-0.0540309 ]
 [-0.00634328]
 [ 0.03320337]
 [ 0.07220915]
 [ 0.20334784]
 [ 0.15039291]
 [-0.11998524]
 [-0.05504936]
 [ 0.02150018]
 [-0.00646639]
 [-0.18658568]
 [-0.07270408]
 [-0.00070936]
 [ 0.06090261]
 [-0.17153426]
 [-0.17705028]
 [ 0.20074829]
 [-0.17510806]
 [ 0.00770151]
 [-0.00065972]
 [-0.03214638]
 [ 0.04349547]
 [-0.03313126]
 [-0.03541647]
 [ 0.17753858]
 [-0.11229738]
 [ 0.00302972]
 [-0.13522183]
 [-0.1218117 ]
 [ 0.01269698]
 [ 0.24939075]
 [-0.11902217]
 [-0.07449974]
 [-0.14533262]
 [ 0.17463263]
 [ 0.08115205]
 [ 0.02176214]
 [ 0.11937697]
 [-0.05982813]
 [ 0.06118996]
 [ 0.05107189]
 [-0.06245206]
 [ 0.01050832]
 [-0.00225291]
 [ 0.0300017 ]
 [-0.07496565]
 [ 0.0024869 ]
 [ 0.03554857]
 [-0.21060735]
 [ 0.04356976]
 [-0.00670086]
 [ 0.20078074]
 [ 0.06448642]
 [-0.07378448]
 [-0.07472344]
 [ 0.10914569]
 [ 0.18357175]
 [ 0.11426099]
 [-0.00807879]
 [-0.00912734]
 [ 0.0426246 ]
 [ 0.01469135]
 [ 0.00857861]
 [ 0.0625185 ]
 [-0.02578613]
 [ 0.12196194]
 [-0.10947149]
 [ 0.02370702]
 [ 0.09816859]
 [ 0.06546354]
 [-0.0951268 ]
 [-0.04658896]
 [ 0.07263957]
 [ 0.09501809]
 [ 0.08552349]
 [-0.05897517]
 [-0.14037358]
 [ 0.01038888]
 [-0.02411114]
 [-0.00593166]
 [ 0.00397194]
 [-0.04073459]
 [ 0.02105909]
 [ 0.14044856]
 [-0.02266413]
 [ 0.03905573]
 [ 0.01862154]
 [-0.19237935]]

Fold: 2
Lambda: 1.0
[[ 0.51107203]
 [ 0.0391374 ]
 [ 0.02460249]
 [ 0.1666775 ]
 [-0.03576135]
 [-0.00558054]
 [ 0.05376425]
 [ 0.04497724]
 [-0.19732928]
 [-0.0449324 ]
 [ 0.14242869]
 [ 0.00100026]
 [ 0.02910578]
 [-0.01287104]
 [-0.14650773]
 [ 0.04018804]
 [-0.15905666]
 [-0.04897072]
 [ 0.02934371]
 [-0.07226186]
 [ 0.12301258]
 [ 0.03595873]
 [-0.20893372]
 [-0.02538023]
 [-0.03211359]
 [ 0.02454143]
 [ 0.05355868]
 [ 0.02833952]
 [ 0.01232363]
 [-0.12937666]
 [-0.07434101]
 [ 0.05430071]
 [ 0.00817626]
 [ 0.00698024]
 [ 0.20377586]
 [-0.0540309 ]
 [-0.00634328]
 [ 0.03320337]
 [ 0.07220915]
 [ 0.20334784]
 [ 0.15039291]
 [-0.11998524]
 [-0.05504936]
 [ 0.02150018]
 [-0.00646639]
 [-0.18658568]
 [-0.07270408]
 [-0.00070936]
 [ 0.06090261]
 [-0.17153426]
 [-0.17705028]
 [ 0.20074829]
 [-0.17510806]
 [ 0.00770151]
 [-0.00065972]
 [-0.03214638]
 [ 0.04349547]
 [-0.03313126]
 [-0.03541647]
 [ 0.17753858]
 [-0.11229738]
 [ 0.00302972]
 [-0.13522183]
 [-0.1218117 ]
 [ 0.01269698]
 [ 0.24939075]
 [-0.11902217]
 [-0.07449974]
 [-0.14533262]
 [ 0.17463263]
 [ 0.08115205]
 [ 0.02176214]
 [ 0.11937697]
 [-0.05982813]
 [ 0.06118996]
 [ 0.05107189]
 [-0.06245206]
 [ 0.01050832]
 [-0.00225291]
 [ 0.0300017 ]
 [-0.07496565]
 [ 0.0024869 ]
 [ 0.03554857]
 [-0.21060735]
 [ 0.04356976]
 [-0.00670086]
 [ 0.20078074]
 [ 0.06448642]
 [-0.07378448]
 [-0.07472344]
 [ 0.10914569]
 [ 0.18357175]
 [ 0.11426099]
 [-0.00807879]
 [-0.00912734]
 [ 0.0426246 ]
 [ 0.01469135]
 [ 0.00857861]
 [ 0.0625185 ]
 [-0.02578613]
 [ 0.12196194]
 [-0.10947149]
 [ 0.02370702]
 [ 0.09816859]
 [ 0.06546354]
 [-0.0951268 ]
 [-0.04658896]
 [ 0.07263957]
 [ 0.09501809]
 [ 0.08552349]
 [-0.05897517]
 [-0.14037358]
 [ 0.01038888]
 [-0.02411114]
 [-0.00593166]
 [ 0.00397194]
 [-0.04073459]
 [ 0.02105909]
 [ 0.14044856]
 [-0.02266413]
 [ 0.03905573]
 [ 0.01862154]
 [-0.19237935]]

Fold: 3
Lambda: 1.0
[[ 0.51107203]
 [ 0.0391374 ]
 [ 0.02460249]
 [ 0.1666775 ]
 [-0.03576135]
 [-0.00558054]
 [ 0.05376425]
 [ 0.04497724]
 [-0.19732928]
 [-0.0449324 ]
 [ 0.14242869]
 [ 0.00100026]
 [ 0.02910578]
 [-0.01287104]
 [-0.14650773]
 [ 0.04018804]
 [-0.15905666]
 [-0.04897072]
 [ 0.02934371]
 [-0.07226186]
 [ 0.12301258]
 [ 0.03595873]
 [-0.20893372]
 [-0.02538023]
 [-0.03211359]
 [ 0.02454143]
 [ 0.05355868]
 [ 0.02833952]
 [ 0.01232363]
 [-0.12937666]
 [-0.07434101]
 [ 0.05430071]
 [ 0.00817626]
 [ 0.00698024]
 [ 0.20377586]
 [-0.0540309 ]
 [-0.00634328]
 [ 0.03320337]
 [ 0.07220915]
 [ 0.20334784]
 [ 0.15039291]
 [-0.11998524]
 [-0.05504936]
 [ 0.02150018]
 [-0.00646639]
 [-0.18658568]
 [-0.07270408]
 [-0.00070936]
 [ 0.06090261]
 [-0.17153426]
 [-0.17705028]
 [ 0.20074829]
 [-0.17510806]
 [ 0.00770151]
 [-0.00065972]
 [-0.03214638]
 [ 0.04349547]
 [-0.03313126]
 [-0.03541647]
 [ 0.17753858]
 [-0.11229738]
 [ 0.00302972]
 [-0.13522183]
 [-0.1218117 ]
 [ 0.01269698]
 [ 0.24939075]
 [-0.11902217]
 [-0.07449974]
 [-0.14533262]
 [ 0.17463263]
 [ 0.08115205]
 [ 0.02176214]
 [ 0.11937697]
 [-0.05982813]
 [ 0.06118996]
 [ 0.05107189]
 [-0.06245206]
 [ 0.01050832]
 [-0.00225291]
 [ 0.0300017 ]
 [-0.07496565]
 [ 0.0024869 ]
 [ 0.03554857]
 [-0.21060735]
 [ 0.04356976]
 [-0.00670086]
 [ 0.20078074]
 [ 0.06448642]
 [-0.07378448]
 [-0.07472344]
 [ 0.10914569]
 [ 0.18357175]
 [ 0.11426099]
 [-0.00807879]
 [-0.00912734]
 [ 0.0426246 ]
 [ 0.01469135]
 [ 0.00857861]
 [ 0.0625185 ]
 [-0.02578613]
 [ 0.12196194]
 [-0.10947149]
 [ 0.02370702]
 [ 0.09816859]
 [ 0.06546354]
 [-0.0951268 ]
 [-0.04658896]
 [ 0.07263957]
 [ 0.09501809]
 [ 0.08552349]
 [-0.05897517]
 [-0.14037358]
 [ 0.01038888]
 [-0.02411114]
 [-0.00593166]
 [ 0.00397194]
 [-0.04073459]
 [ 0.02105909]
 [ 0.14044856]
 [-0.02266413]
 [ 0.03905573]
 [ 0.01862154]
 [-0.19237935]]

Fold: 4
Lambda: 1.0
[[ 0.51107203]
 [ 0.0391374 ]
 [ 0.02460249]
 [ 0.1666775 ]
 [-0.03576135]
 [-0.00558054]
 [ 0.05376425]
 [ 0.04497724]
 [-0.19732928]
 [-0.0449324 ]
 [ 0.14242869]
 [ 0.00100026]
 [ 0.02910578]
 [-0.01287104]
 [-0.14650773]
 [ 0.04018804]
 [-0.15905666]
 [-0.04897072]
 [ 0.02934371]
 [-0.07226186]
 [ 0.12301258]
 [ 0.03595873]
 [-0.20893372]
 [-0.02538023]
 [-0.03211359]
 [ 0.02454143]
 [ 0.05355868]
 [ 0.02833952]
 [ 0.01232363]
 [-0.12937666]
 [-0.07434101]
 [ 0.05430071]
 [ 0.00817626]
 [ 0.00698024]
 [ 0.20377586]
 [-0.0540309 ]
 [-0.00634328]
 [ 0.03320337]
 [ 0.07220915]
 [ 0.20334784]
 [ 0.15039291]
 [-0.11998524]
 [-0.05504936]
 [ 0.02150018]
 [-0.00646639]
 [-0.18658568]
 [-0.07270408]
 [-0.00070936]
 [ 0.06090261]
 [-0.17153426]
 [-0.17705028]
 [ 0.20074829]
 [-0.17510806]
 [ 0.00770151]
 [-0.00065972]
 [-0.03214638]
 [ 0.04349547]
 [-0.03313126]
 [-0.03541647]
 [ 0.17753858]
 [-0.11229738]
 [ 0.00302972]
 [-0.13522183]
 [-0.1218117 ]
 [ 0.01269698]
 [ 0.24939075]
 [-0.11902217]
 [-0.07449974]
 [-0.14533262]
 [ 0.17463263]
 [ 0.08115205]
 [ 0.02176214]
 [ 0.11937697]
 [-0.05982813]
 [ 0.06118996]
 [ 0.05107189]
 [-0.06245206]
 [ 0.01050832]
 [-0.00225291]
 [ 0.0300017 ]
 [-0.07496565]
 [ 0.0024869 ]
 [ 0.03554857]
 [-0.21060735]
 [ 0.04356976]
 [-0.00670086]
 [ 0.20078074]
 [ 0.06448642]
 [-0.07378448]
 [-0.07472344]
 [ 0.10914569]
 [ 0.18357175]
 [ 0.11426099]
 [-0.00807879]
 [-0.00912734]
 [ 0.0426246 ]
 [ 0.01469135]
 [ 0.00857861]
 [ 0.0625185 ]
 [-0.02578613]
 [ 0.12196194]
 [-0.10947149]
 [ 0.02370702]
 [ 0.09816859]
 [ 0.06546354]
 [-0.0951268 ]
 [-0.04658896]
 [ 0.07263957]
 [ 0.09501809]
 [ 0.08552349]
 [-0.05897517]
 [-0.14037358]
 [ 0.01038888]
 [-0.02411114]
 [-0.00593166]
 [ 0.00397194]
 [-0.04073459]
 [ 0.02105909]
 [ 0.14044856]
 [-0.02266413]
 [ 0.03905573]
 [ 0.01862154]
 [-0.19237935]]

Fold: 0
Lambda: 1.5
[[  6.76940879e-01]
 [ -1.45015523e-02]
 [  3.01040336e-02]
 [  1.29813445e-01]
 [ -6.12312618e-02]
 [ -1.59105175e-02]
 [  7.89605682e-02]
 [  1.26620348e-02]
 [ -1.96506467e-01]
 [ -6.54520597e-03]
 [ -1.87257660e-02]
 [ -7.12889474e-02]
 [  3.81839177e-02]
 [  1.20704839e-02]
 [ -1.15002164e-01]
 [  3.39621539e-02]
 [ -1.51671804e-01]
 [  1.46066663e-01]
 [  1.18751543e-04]
 [ -6.86302803e-02]
 [  1.40640321e-01]
 [  6.10882001e-02]
 [ -2.50606303e-01]
 [ -4.10212528e-02]
 [ -3.16608021e-02]
 [  1.14546509e-02]
 [  4.41800141e-02]
 [  2.27954690e-02]
 [  8.73445320e-04]
 [ -1.22653427e-01]
 [ -1.03575748e-01]
 [  7.49483530e-02]
 [  2.47862587e-02]
 [ -5.65008854e-02]
 [  1.52754403e-01]
 [ -6.49569789e-02]
 [ -1.33042042e-02]
 [  6.91396649e-02]
 [  8.17895462e-02]
 [  1.22658797e-01]
 [  1.20982581e-01]
 [ -4.09810493e-02]
 [ -1.13938138e-02]
 [  4.71313673e-02]
 [ -6.62414384e-02]
 [ -2.48358074e-01]
 [ -1.12193721e-02]
 [ -1.05508702e-02]
 [  4.14732479e-02]
 [ -1.67143814e-01]
 [ -9.05060641e-02]
 [  1.34110790e-01]
 [ -1.37041673e-01]
 [  3.65267615e-02]
 [ -2.71421052e-02]
 [ -3.08442234e-02]
 [  3.70480941e-02]
 [ -4.48751092e-02]
 [ -4.92523294e-03]
 [  1.39583370e-01]
 [ -2.95694098e-04]
 [ -6.24678898e-02]
 [ -1.90579915e-01]
 [ -7.60401846e-02]
 [ -3.77055937e-02]
 [  2.55349671e-01]
 [ -8.78162084e-02]
 [ -8.14799828e-02]
 [ -1.63538277e-01]
 [  1.14645054e-01]
 [  1.01571792e-01]
 [  2.07568057e-02]
 [  1.50303551e-01]
 [ -5.59938931e-02]
 [  7.87385210e-02]
 [  4.41068705e-02]
 [ -7.13397250e-02]
 [ -1.84218641e-02]
 [  1.77484584e-02]
 [ -8.82763044e-03]
 [ -1.18277082e-01]
 [  2.35831280e-02]
 [  3.42022087e-02]
 [ -2.52751629e-01]
 [  2.52830558e-02]
 [ -3.56937233e-02]
 [  2.77458971e-01]
 [  5.41854067e-02]
 [ -1.08919764e-02]
 [ -9.03125672e-02]
 [  1.50062001e-01]
 [  1.20745857e-01]
 [  6.22650801e-02]
 [  3.60930524e-03]
 [  1.72082575e-02]
 [  1.93386073e-02]
 [  5.35153165e-03]
 [  6.14841966e-03]
 [ -2.47948420e-02]
 [ -4.77763053e-02]
 [  7.55475065e-02]
 [ -1.14768418e-01]
 [  6.43529303e-02]
 [  9.01653481e-02]
 [ -2.11107464e-02]
 [ -1.27652876e-01]
 [ -9.86321782e-04]
 [  1.18280799e-01]
 [  1.31402204e-01]
 [  7.50340073e-02]
 [ -9.11437188e-02]
 [ -6.96169895e-02]
 [ -1.65677828e-02]
 [  3.30091017e-03]
 [  3.22255033e-02]
 [ -1.83131706e-02]
 [ -4.54353987e-02]
 [  1.02537099e-01]
 [  5.05546312e-02]
 [ -3.88137821e-02]
 [  3.03405985e-02]
 [  4.34469485e-03]
 [ -1.00622154e-01]]

Fold: 1
Lambda: 1.5
[[  6.76940879e-01]
 [ -1.45015523e-02]
 [  3.01040336e-02]
 [  1.29813445e-01]
 [ -6.12312618e-02]
 [ -1.59105175e-02]
 [  7.89605682e-02]
 [  1.26620348e-02]
 [ -1.96506467e-01]
 [ -6.54520597e-03]
 [ -1.87257660e-02]
 [ -7.12889474e-02]
 [  3.81839177e-02]
 [  1.20704839e-02]
 [ -1.15002164e-01]
 [  3.39621539e-02]
 [ -1.51671804e-01]
 [  1.46066663e-01]
 [  1.18751543e-04]
 [ -6.86302803e-02]
 [  1.40640321e-01]
 [  6.10882001e-02]
 [ -2.50606303e-01]
 [ -4.10212528e-02]
 [ -3.16608021e-02]
 [  1.14546509e-02]
 [  4.41800141e-02]
 [  2.27954690e-02]
 [  8.73445320e-04]
 [ -1.22653427e-01]
 [ -1.03575748e-01]
 [  7.49483530e-02]
 [  2.47862587e-02]
 [ -5.65008854e-02]
 [  1.52754403e-01]
 [ -6.49569789e-02]
 [ -1.33042042e-02]
 [  6.91396649e-02]
 [  8.17895462e-02]
 [  1.22658797e-01]
 [  1.20982581e-01]
 [ -4.09810493e-02]
 [ -1.13938138e-02]
 [  4.71313673e-02]
 [ -6.62414384e-02]
 [ -2.48358074e-01]
 [ -1.12193721e-02]
 [ -1.05508702e-02]
 [  4.14732479e-02]
 [ -1.67143814e-01]
 [ -9.05060641e-02]
 [  1.34110790e-01]
 [ -1.37041673e-01]
 [  3.65267615e-02]
 [ -2.71421052e-02]
 [ -3.08442234e-02]
 [  3.70480941e-02]
 [ -4.48751092e-02]
 [ -4.92523294e-03]
 [  1.39583370e-01]
 [ -2.95694098e-04]
 [ -6.24678898e-02]
 [ -1.90579915e-01]
 [ -7.60401846e-02]
 [ -3.77055937e-02]
 [  2.55349671e-01]
 [ -8.78162084e-02]
 [ -8.14799828e-02]
 [ -1.63538277e-01]
 [  1.14645054e-01]
 [  1.01571792e-01]
 [  2.07568057e-02]
 [  1.50303551e-01]
 [ -5.59938931e-02]
 [  7.87385210e-02]
 [  4.41068705e-02]
 [ -7.13397250e-02]
 [ -1.84218641e-02]
 [  1.77484584e-02]
 [ -8.82763044e-03]
 [ -1.18277082e-01]
 [  2.35831280e-02]
 [  3.42022087e-02]
 [ -2.52751629e-01]
 [  2.52830558e-02]
 [ -3.56937233e-02]
 [  2.77458971e-01]
 [  5.41854067e-02]
 [ -1.08919764e-02]
 [ -9.03125672e-02]
 [  1.50062001e-01]
 [  1.20745857e-01]
 [  6.22650801e-02]
 [  3.60930524e-03]
 [  1.72082575e-02]
 [  1.93386073e-02]
 [  5.35153165e-03]
 [  6.14841966e-03]
 [ -2.47948420e-02]
 [ -4.77763053e-02]
 [  7.55475065e-02]
 [ -1.14768418e-01]
 [  6.43529303e-02]
 [  9.01653481e-02]
 [ -2.11107464e-02]
 [ -1.27652876e-01]
 [ -9.86321782e-04]
 [  1.18280799e-01]
 [  1.31402204e-01]
 [  7.50340073e-02]
 [ -9.11437188e-02]
 [ -6.96169895e-02]
 [ -1.65677828e-02]
 [  3.30091017e-03]
 [  3.22255033e-02]
 [ -1.83131706e-02]
 [ -4.54353987e-02]
 [  1.02537099e-01]
 [  5.05546312e-02]
 [ -3.88137821e-02]
 [  3.03405985e-02]
 [  4.34469485e-03]
 [ -1.00622154e-01]]

Fold: 2
Lambda: 1.5
[[  6.76940879e-01]
 [ -1.45015523e-02]
 [  3.01040336e-02]
 [  1.29813445e-01]
 [ -6.12312618e-02]
 [ -1.59105175e-02]
 [  7.89605682e-02]
 [  1.26620348e-02]
 [ -1.96506467e-01]
 [ -6.54520597e-03]
 [ -1.87257660e-02]
 [ -7.12889474e-02]
 [  3.81839177e-02]
 [  1.20704839e-02]
 [ -1.15002164e-01]
 [  3.39621539e-02]
 [ -1.51671804e-01]
 [  1.46066663e-01]
 [  1.18751543e-04]
 [ -6.86302803e-02]
 [  1.40640321e-01]
 [  6.10882001e-02]
 [ -2.50606303e-01]
 [ -4.10212528e-02]
 [ -3.16608021e-02]
 [  1.14546509e-02]
 [  4.41800141e-02]
 [  2.27954690e-02]
 [  8.73445320e-04]
 [ -1.22653427e-01]
 [ -1.03575748e-01]
 [  7.49483530e-02]
 [  2.47862587e-02]
 [ -5.65008854e-02]
 [  1.52754403e-01]
 [ -6.49569789e-02]
 [ -1.33042042e-02]
 [  6.91396649e-02]
 [  8.17895462e-02]
 [  1.22658797e-01]
 [  1.20982581e-01]
 [ -4.09810493e-02]
 [ -1.13938138e-02]
 [  4.71313673e-02]
 [ -6.62414384e-02]
 [ -2.48358074e-01]
 [ -1.12193721e-02]
 [ -1.05508702e-02]
 [  4.14732479e-02]
 [ -1.67143814e-01]
 [ -9.05060641e-02]
 [  1.34110790e-01]
 [ -1.37041673e-01]
 [  3.65267615e-02]
 [ -2.71421052e-02]
 [ -3.08442234e-02]
 [  3.70480941e-02]
 [ -4.48751092e-02]
 [ -4.92523294e-03]
 [  1.39583370e-01]
 [ -2.95694098e-04]
 [ -6.24678898e-02]
 [ -1.90579915e-01]
 [ -7.60401846e-02]
 [ -3.77055937e-02]
 [  2.55349671e-01]
 [ -8.78162084e-02]
 [ -8.14799828e-02]
 [ -1.63538277e-01]
 [  1.14645054e-01]
 [  1.01571792e-01]
 [  2.07568057e-02]
 [  1.50303551e-01]
 [ -5.59938931e-02]
 [  7.87385210e-02]
 [  4.41068705e-02]
 [ -7.13397250e-02]
 [ -1.84218641e-02]
 [  1.77484584e-02]
 [ -8.82763044e-03]
 [ -1.18277082e-01]
 [  2.35831280e-02]
 [  3.42022087e-02]
 [ -2.52751629e-01]
 [  2.52830558e-02]
 [ -3.56937233e-02]
 [  2.77458971e-01]
 [  5.41854067e-02]
 [ -1.08919764e-02]
 [ -9.03125672e-02]
 [  1.50062001e-01]
 [  1.20745857e-01]
 [  6.22650801e-02]
 [  3.60930524e-03]
 [  1.72082575e-02]
 [  1.93386073e-02]
 [  5.35153165e-03]
 [  6.14841966e-03]
 [ -2.47948420e-02]
 [ -4.77763053e-02]
 [  7.55475065e-02]
 [ -1.14768418e-01]
 [  6.43529303e-02]
 [  9.01653481e-02]
 [ -2.11107464e-02]
 [ -1.27652876e-01]
 [ -9.86321782e-04]
 [  1.18280799e-01]
 [  1.31402204e-01]
 [  7.50340073e-02]
 [ -9.11437188e-02]
 [ -6.96169895e-02]
 [ -1.65677828e-02]
 [  3.30091017e-03]
 [  3.22255033e-02]
 [ -1.83131706e-02]
 [ -4.54353987e-02]
 [  1.02537099e-01]
 [  5.05546312e-02]
 [ -3.88137821e-02]
 [  3.03405985e-02]
 [  4.34469485e-03]
 [ -1.00622154e-01]]

Fold: 3
Lambda: 1.5
[[  6.76940879e-01]
 [ -1.45015523e-02]
 [  3.01040336e-02]
 [  1.29813445e-01]
 [ -6.12312618e-02]
 [ -1.59105175e-02]
 [  7.89605682e-02]
 [  1.26620348e-02]
 [ -1.96506467e-01]
 [ -6.54520597e-03]
 [ -1.87257660e-02]
 [ -7.12889474e-02]
 [  3.81839177e-02]
 [  1.20704839e-02]
 [ -1.15002164e-01]
 [  3.39621539e-02]
 [ -1.51671804e-01]
 [  1.46066663e-01]
 [  1.18751543e-04]
 [ -6.86302803e-02]
 [  1.40640321e-01]
 [  6.10882001e-02]
 [ -2.50606303e-01]
 [ -4.10212528e-02]
 [ -3.16608021e-02]
 [  1.14546509e-02]
 [  4.41800141e-02]
 [  2.27954690e-02]
 [  8.73445320e-04]
 [ -1.22653427e-01]
 [ -1.03575748e-01]
 [  7.49483530e-02]
 [  2.47862587e-02]
 [ -5.65008854e-02]
 [  1.52754403e-01]
 [ -6.49569789e-02]
 [ -1.33042042e-02]
 [  6.91396649e-02]
 [  8.17895462e-02]
 [  1.22658797e-01]
 [  1.20982581e-01]
 [ -4.09810493e-02]
 [ -1.13938138e-02]
 [  4.71313673e-02]
 [ -6.62414384e-02]
 [ -2.48358074e-01]
 [ -1.12193721e-02]
 [ -1.05508702e-02]
 [  4.14732479e-02]
 [ -1.67143814e-01]
 [ -9.05060641e-02]
 [  1.34110790e-01]
 [ -1.37041673e-01]
 [  3.65267615e-02]
 [ -2.71421052e-02]
 [ -3.08442234e-02]
 [  3.70480941e-02]
 [ -4.48751092e-02]
 [ -4.92523294e-03]
 [  1.39583370e-01]
 [ -2.95694098e-04]
 [ -6.24678898e-02]
 [ -1.90579915e-01]
 [ -7.60401846e-02]
 [ -3.77055937e-02]
 [  2.55349671e-01]
 [ -8.78162084e-02]
 [ -8.14799828e-02]
 [ -1.63538277e-01]
 [  1.14645054e-01]
 [  1.01571792e-01]
 [  2.07568057e-02]
 [  1.50303551e-01]
 [ -5.59938931e-02]
 [  7.87385210e-02]
 [  4.41068705e-02]
 [ -7.13397250e-02]
 [ -1.84218641e-02]
 [  1.77484584e-02]
 [ -8.82763044e-03]
 [ -1.18277082e-01]
 [  2.35831280e-02]
 [  3.42022087e-02]
 [ -2.52751629e-01]
 [  2.52830558e-02]
 [ -3.56937233e-02]
 [  2.77458971e-01]
 [  5.41854067e-02]
 [ -1.08919764e-02]
 [ -9.03125672e-02]
 [  1.50062001e-01]
 [  1.20745857e-01]
 [  6.22650801e-02]
 [  3.60930524e-03]
 [  1.72082575e-02]
 [  1.93386073e-02]
 [  5.35153165e-03]
 [  6.14841966e-03]
 [ -2.47948420e-02]
 [ -4.77763053e-02]
 [  7.55475065e-02]
 [ -1.14768418e-01]
 [  6.43529303e-02]
 [  9.01653481e-02]
 [ -2.11107464e-02]
 [ -1.27652876e-01]
 [ -9.86321782e-04]
 [  1.18280799e-01]
 [  1.31402204e-01]
 [  7.50340073e-02]
 [ -9.11437188e-02]
 [ -6.96169895e-02]
 [ -1.65677828e-02]
 [  3.30091017e-03]
 [  3.22255033e-02]
 [ -1.83131706e-02]
 [ -4.54353987e-02]
 [  1.02537099e-01]
 [  5.05546312e-02]
 [ -3.88137821e-02]
 [  3.03405985e-02]
 [  4.34469485e-03]
 [ -1.00622154e-01]]

Fold: 4
Lambda: 1.5
[[  6.76940879e-01]
 [ -1.45015523e-02]
 [  3.01040336e-02]
 [  1.29813445e-01]
 [ -6.12312618e-02]
 [ -1.59105175e-02]
 [  7.89605682e-02]
 [  1.26620348e-02]
 [ -1.96506467e-01]
 [ -6.54520597e-03]
 [ -1.87257660e-02]
 [ -7.12889474e-02]
 [  3.81839177e-02]
 [  1.20704839e-02]
 [ -1.15002164e-01]
 [  3.39621539e-02]
 [ -1.51671804e-01]
 [  1.46066663e-01]
 [  1.18751543e-04]
 [ -6.86302803e-02]
 [  1.40640321e-01]
 [  6.10882001e-02]
 [ -2.50606303e-01]
 [ -4.10212528e-02]
 [ -3.16608021e-02]
 [  1.14546509e-02]
 [  4.41800141e-02]
 [  2.27954690e-02]
 [  8.73445320e-04]
 [ -1.22653427e-01]
 [ -1.03575748e-01]
 [  7.49483530e-02]
 [  2.47862587e-02]
 [ -5.65008854e-02]
 [  1.52754403e-01]
 [ -6.49569789e-02]
 [ -1.33042042e-02]
 [  6.91396649e-02]
 [  8.17895462e-02]
 [  1.22658797e-01]
 [  1.20982581e-01]
 [ -4.09810493e-02]
 [ -1.13938138e-02]
 [  4.71313673e-02]
 [ -6.62414384e-02]
 [ -2.48358074e-01]
 [ -1.12193721e-02]
 [ -1.05508702e-02]
 [  4.14732479e-02]
 [ -1.67143814e-01]
 [ -9.05060641e-02]
 [  1.34110790e-01]
 [ -1.37041673e-01]
 [  3.65267615e-02]
 [ -2.71421052e-02]
 [ -3.08442234e-02]
 [  3.70480941e-02]
 [ -4.48751092e-02]
 [ -4.92523294e-03]
 [  1.39583370e-01]
 [ -2.95694098e-04]
 [ -6.24678898e-02]
 [ -1.90579915e-01]
 [ -7.60401846e-02]
 [ -3.77055937e-02]
 [  2.55349671e-01]
 [ -8.78162084e-02]
 [ -8.14799828e-02]
 [ -1.63538277e-01]
 [  1.14645054e-01]
 [  1.01571792e-01]
 [  2.07568057e-02]
 [  1.50303551e-01]
 [ -5.59938931e-02]
 [  7.87385210e-02]
 [  4.41068705e-02]
 [ -7.13397250e-02]
 [ -1.84218641e-02]
 [  1.77484584e-02]
 [ -8.82763044e-03]
 [ -1.18277082e-01]
 [  2.35831280e-02]
 [  3.42022087e-02]
 [ -2.52751629e-01]
 [  2.52830558e-02]
 [ -3.56937233e-02]
 [  2.77458971e-01]
 [  5.41854067e-02]
 [ -1.08919764e-02]
 [ -9.03125672e-02]
 [  1.50062001e-01]
 [  1.20745857e-01]
 [  6.22650801e-02]
 [  3.60930524e-03]
 [  1.72082575e-02]
 [  1.93386073e-02]
 [  5.35153165e-03]
 [  6.14841966e-03]
 [ -2.47948420e-02]
 [ -4.77763053e-02]
 [  7.55475065e-02]
 [ -1.14768418e-01]
 [  6.43529303e-02]
 [  9.01653481e-02]
 [ -2.11107464e-02]
 [ -1.27652876e-01]
 [ -9.86321782e-04]
 [  1.18280799e-01]
 [  1.31402204e-01]
 [  7.50340073e-02]
 [ -9.11437188e-02]
 [ -6.96169895e-02]
 [ -1.65677828e-02]
 [  3.30091017e-03]
 [  3.22255033e-02]
 [ -1.83131706e-02]
 [ -4.54353987e-02]
 [  1.02537099e-01]
 [  5.05546312e-02]
 [ -3.88137821e-02]
 [  3.03405985e-02]
 [  4.34469485e-03]
 [ -1.00622154e-01]]

Fold: 0
Lambda: 2.0
[[ 0.67305973]
 [-0.03723527]
 [ 0.02707573]
 [ 0.16204225]
 [-0.09747588]
 [-0.05323688]
 [ 0.06377335]
 [ 0.04876797]
 [-0.20395762]
 [-0.08446211]
 [ 0.02773365]
 [-0.09423337]
 [ 0.04578366]
 [ 0.08480143]
 [-0.11803536]
 [ 0.06044263]
 [-0.19749441]
 [ 0.0995661 ]
 [-0.00106694]
 [-0.09250043]
 [ 0.08806698]
 [ 0.00785203]
 [-0.23031799]
 [-0.03515684]
 [-0.02332368]
 [ 0.02242468]
 [ 0.03250235]
 [ 0.0484657 ]
 [-0.01444749]
 [-0.17067263]
 [-0.16038733]
 [ 0.10222075]
 [ 0.06995284]
 [-0.01385781]
 [ 0.11386934]
 [-0.04064205]
 [-0.01129572]
 [ 0.04329399]
 [ 0.03520352]
 [ 0.1729871 ]
 [ 0.20889073]
 [-0.09855433]
 [-0.0741097 ]
 [ 0.05319457]
 [-0.09121443]
 [-0.18818989]
 [-0.08882375]
 [-0.03184707]
 [ 0.03176571]
 [-0.13764688]
 [ 0.01007545]
 [ 0.04639767]
 [-0.16533911]
 [ 0.01872812]
 [ 0.0111511 ]
 [-0.03024416]
 [ 0.01145217]
 [-0.04710753]
 [ 0.02687659]
 [ 0.05830221]
 [ 0.00421391]
 [ 0.02218996]
 [-0.07314412]
 [-0.07187766]
 [-0.08132535]
 [ 0.2754083 ]
 [-0.13849828]
 [-0.04612536]
 [-0.12871833]
 [ 0.11135274]
 [ 0.07258844]
 [ 0.00548284]
 [ 0.13295854]
 [-0.06191777]
 [ 0.0103477 ]
 [ 0.04656549]
 [-0.08387053]
 [-0.01034367]
 [ 0.04149286]
 [-0.02879538]
 [-0.12504215]
 [ 0.0422889 ]
 [ 0.02013977]
 [-0.21049291]
 [ 0.02143645]
 [ 0.03044065]
 [ 0.17689825]
 [ 0.04069966]
 [-0.03620092]
 [-0.09037015]
 [ 0.05390132]
 [ 0.17282731]
 [ 0.12575767]
 [ 0.00147319]
 [ 0.02686566]
 [ 0.02514355]
 [ 0.0072869 ]
 [ 0.01586113]
 [-0.02259369]
 [-0.01601401]
 [ 0.08794059]
 [-0.10401733]
 [ 0.02849538]
 [ 0.124119  ]
 [-0.01917065]
 [-0.05471045]
 [ 0.00787235]
 [ 0.08011039]
 [ 0.12065674]
 [ 0.08750521]
 [-0.05196902]
 [-0.0715685 ]
 [-0.01094137]
 [-0.01958217]
 [ 0.08038732]
 [ 0.01230352]
 [-0.04551851]
 [ 0.11971725]
 [ 0.09332697]
 [-0.02315815]
 [ 0.02319729]
 [-0.00120354]
 [-0.07432995]]

Fold: 1
Lambda: 2.0
[[ 0.67305973]
 [-0.03723527]
 [ 0.02707573]
 [ 0.16204225]
 [-0.09747588]
 [-0.05323688]
 [ 0.06377335]
 [ 0.04876797]
 [-0.20395762]
 [-0.08446211]
 [ 0.02773365]
 [-0.09423337]
 [ 0.04578366]
 [ 0.08480143]
 [-0.11803536]
 [ 0.06044263]
 [-0.19749441]
 [ 0.0995661 ]
 [-0.00106694]
 [-0.09250043]
 [ 0.08806698]
 [ 0.00785203]
 [-0.23031799]
 [-0.03515684]
 [-0.02332368]
 [ 0.02242468]
 [ 0.03250235]
 [ 0.0484657 ]
 [-0.01444749]
 [-0.17067263]
 [-0.16038733]
 [ 0.10222075]
 [ 0.06995284]
 [-0.01385781]
 [ 0.11386934]
 [-0.04064205]
 [-0.01129572]
 [ 0.04329399]
 [ 0.03520352]
 [ 0.1729871 ]
 [ 0.20889073]
 [-0.09855433]
 [-0.0741097 ]
 [ 0.05319457]
 [-0.09121443]
 [-0.18818989]
 [-0.08882375]
 [-0.03184707]
 [ 0.03176571]
 [-0.13764688]
 [ 0.01007545]
 [ 0.04639767]
 [-0.16533911]
 [ 0.01872812]
 [ 0.0111511 ]
 [-0.03024416]
 [ 0.01145217]
 [-0.04710753]
 [ 0.02687659]
 [ 0.05830221]
 [ 0.00421391]
 [ 0.02218996]
 [-0.07314412]
 [-0.07187766]
 [-0.08132535]
 [ 0.2754083 ]
 [-0.13849828]
 [-0.04612536]
 [-0.12871833]
 [ 0.11135274]
 [ 0.07258844]
 [ 0.00548284]
 [ 0.13295854]
 [-0.06191777]
 [ 0.0103477 ]
 [ 0.04656549]
 [-0.08387053]
 [-0.01034367]
 [ 0.04149286]
 [-0.02879538]
 [-0.12504215]
 [ 0.0422889 ]
 [ 0.02013977]
 [-0.21049291]
 [ 0.02143645]
 [ 0.03044065]
 [ 0.17689825]
 [ 0.04069966]
 [-0.03620092]
 [-0.09037015]
 [ 0.05390132]
 [ 0.17282731]
 [ 0.12575767]
 [ 0.00147319]
 [ 0.02686566]
 [ 0.02514355]
 [ 0.0072869 ]
 [ 0.01586113]
 [-0.02259369]
 [-0.01601401]
 [ 0.08794059]
 [-0.10401733]
 [ 0.02849538]
 [ 0.124119  ]
 [-0.01917065]
 [-0.05471045]
 [ 0.00787235]
 [ 0.08011039]
 [ 0.12065674]
 [ 0.08750521]
 [-0.05196902]
 [-0.0715685 ]
 [-0.01094137]
 [-0.01958217]
 [ 0.08038732]
 [ 0.01230352]
 [-0.04551851]
 [ 0.11971725]
 [ 0.09332697]
 [-0.02315815]
 [ 0.02319729]
 [-0.00120354]
 [-0.07432995]]

Fold: 2
Lambda: 2.0
[[ 0.67305973]
 [-0.03723527]
 [ 0.02707573]
 [ 0.16204225]
 [-0.09747588]
 [-0.05323688]
 [ 0.06377335]
 [ 0.04876797]
 [-0.20395762]
 [-0.08446211]
 [ 0.02773365]
 [-0.09423337]
 [ 0.04578366]
 [ 0.08480143]
 [-0.11803536]
 [ 0.06044263]
 [-0.19749441]
 [ 0.0995661 ]
 [-0.00106694]
 [-0.09250043]
 [ 0.08806698]
 [ 0.00785203]
 [-0.23031799]
 [-0.03515684]
 [-0.02332368]
 [ 0.02242468]
 [ 0.03250235]
 [ 0.0484657 ]
 [-0.01444749]
 [-0.17067263]
 [-0.16038733]
 [ 0.10222075]
 [ 0.06995284]
 [-0.01385781]
 [ 0.11386934]
 [-0.04064205]
 [-0.01129572]
 [ 0.04329399]
 [ 0.03520352]
 [ 0.1729871 ]
 [ 0.20889073]
 [-0.09855433]
 [-0.0741097 ]
 [ 0.05319457]
 [-0.09121443]
 [-0.18818989]
 [-0.08882375]
 [-0.03184707]
 [ 0.03176571]
 [-0.13764688]
 [ 0.01007545]
 [ 0.04639767]
 [-0.16533911]
 [ 0.01872812]
 [ 0.0111511 ]
 [-0.03024416]
 [ 0.01145217]
 [-0.04710753]
 [ 0.02687659]
 [ 0.05830221]
 [ 0.00421391]
 [ 0.02218996]
 [-0.07314412]
 [-0.07187766]
 [-0.08132535]
 [ 0.2754083 ]
 [-0.13849828]
 [-0.04612536]
 [-0.12871833]
 [ 0.11135274]
 [ 0.07258844]
 [ 0.00548284]
 [ 0.13295854]
 [-0.06191777]
 [ 0.0103477 ]
 [ 0.04656549]
 [-0.08387053]
 [-0.01034367]
 [ 0.04149286]
 [-0.02879538]
 [-0.12504215]
 [ 0.0422889 ]
 [ 0.02013977]
 [-0.21049291]
 [ 0.02143645]
 [ 0.03044065]
 [ 0.17689825]
 [ 0.04069966]
 [-0.03620092]
 [-0.09037015]
 [ 0.05390132]
 [ 0.17282731]
 [ 0.12575767]
 [ 0.00147319]
 [ 0.02686566]
 [ 0.02514355]
 [ 0.0072869 ]
 [ 0.01586113]
 [-0.02259369]
 [-0.01601401]
 [ 0.08794059]
 [-0.10401733]
 [ 0.02849538]
 [ 0.124119  ]
 [-0.01917065]
 [-0.05471045]
 [ 0.00787235]
 [ 0.08011039]
 [ 0.12065674]
 [ 0.08750521]
 [-0.05196902]
 [-0.0715685 ]
 [-0.01094137]
 [-0.01958217]
 [ 0.08038732]
 [ 0.01230352]
 [-0.04551851]
 [ 0.11971725]
 [ 0.09332697]
 [-0.02315815]
 [ 0.02319729]
 [-0.00120354]
 [-0.07432995]]

Fold: 3
Lambda: 2.0
[[ 0.67305973]
 [-0.03723527]
 [ 0.02707573]
 [ 0.16204225]
 [-0.09747588]
 [-0.05323688]
 [ 0.06377335]
 [ 0.04876797]
 [-0.20395762]
 [-0.08446211]
 [ 0.02773365]
 [-0.09423337]
 [ 0.04578366]
 [ 0.08480143]
 [-0.11803536]
 [ 0.06044263]
 [-0.19749441]
 [ 0.0995661 ]
 [-0.00106694]
 [-0.09250043]
 [ 0.08806698]
 [ 0.00785203]
 [-0.23031799]
 [-0.03515684]
 [-0.02332368]
 [ 0.02242468]
 [ 0.03250235]
 [ 0.0484657 ]
 [-0.01444749]
 [-0.17067263]
 [-0.16038733]
 [ 0.10222075]
 [ 0.06995284]
 [-0.01385781]
 [ 0.11386934]
 [-0.04064205]
 [-0.01129572]
 [ 0.04329399]
 [ 0.03520352]
 [ 0.1729871 ]
 [ 0.20889073]
 [-0.09855433]
 [-0.0741097 ]
 [ 0.05319457]
 [-0.09121443]
 [-0.18818989]
 [-0.08882375]
 [-0.03184707]
 [ 0.03176571]
 [-0.13764688]
 [ 0.01007545]
 [ 0.04639767]
 [-0.16533911]
 [ 0.01872812]
 [ 0.0111511 ]
 [-0.03024416]
 [ 0.01145217]
 [-0.04710753]
 [ 0.02687659]
 [ 0.05830221]
 [ 0.00421391]
 [ 0.02218996]
 [-0.07314412]
 [-0.07187766]
 [-0.08132535]
 [ 0.2754083 ]
 [-0.13849828]
 [-0.04612536]
 [-0.12871833]
 [ 0.11135274]
 [ 0.07258844]
 [ 0.00548284]
 [ 0.13295854]
 [-0.06191777]
 [ 0.0103477 ]
 [ 0.04656549]
 [-0.08387053]
 [-0.01034367]
 [ 0.04149286]
 [-0.02879538]
 [-0.12504215]
 [ 0.0422889 ]
 [ 0.02013977]
 [-0.21049291]
 [ 0.02143645]
 [ 0.03044065]
 [ 0.17689825]
 [ 0.04069966]
 [-0.03620092]
 [-0.09037015]
 [ 0.05390132]
 [ 0.17282731]
 [ 0.12575767]
 [ 0.00147319]
 [ 0.02686566]
 [ 0.02514355]
 [ 0.0072869 ]
 [ 0.01586113]
 [-0.02259369]
 [-0.01601401]
 [ 0.08794059]
 [-0.10401733]
 [ 0.02849538]
 [ 0.124119  ]
 [-0.01917065]
 [-0.05471045]
 [ 0.00787235]
 [ 0.08011039]
 [ 0.12065674]
 [ 0.08750521]
 [-0.05196902]
 [-0.0715685 ]
 [-0.01094137]
 [-0.01958217]
 [ 0.08038732]
 [ 0.01230352]
 [-0.04551851]
 [ 0.11971725]
 [ 0.09332697]
 [-0.02315815]
 [ 0.02319729]
 [-0.00120354]
 [-0.07432995]]

Fold: 4
Lambda: 2.0
[[ 0.67305973]
 [-0.03723527]
 [ 0.02707573]
 [ 0.16204225]
 [-0.09747588]
 [-0.05323688]
 [ 0.06377335]
 [ 0.04876797]
 [-0.20395762]
 [-0.08446211]
 [ 0.02773365]
 [-0.09423337]
 [ 0.04578366]
 [ 0.08480143]
 [-0.11803536]
 [ 0.06044263]
 [-0.19749441]
 [ 0.0995661 ]
 [-0.00106694]
 [-0.09250043]
 [ 0.08806698]
 [ 0.00785203]
 [-0.23031799]
 [-0.03515684]
 [-0.02332368]
 [ 0.02242468]
 [ 0.03250235]
 [ 0.0484657 ]
 [-0.01444749]
 [-0.17067263]
 [-0.16038733]
 [ 0.10222075]
 [ 0.06995284]
 [-0.01385781]
 [ 0.11386934]
 [-0.04064205]
 [-0.01129572]
 [ 0.04329399]
 [ 0.03520352]
 [ 0.1729871 ]
 [ 0.20889073]
 [-0.09855433]
 [-0.0741097 ]
 [ 0.05319457]
 [-0.09121443]
 [-0.18818989]
 [-0.08882375]
 [-0.03184707]
 [ 0.03176571]
 [-0.13764688]
 [ 0.01007545]
 [ 0.04639767]
 [-0.16533911]
 [ 0.01872812]
 [ 0.0111511 ]
 [-0.03024416]
 [ 0.01145217]
 [-0.04710753]
 [ 0.02687659]
 [ 0.05830221]
 [ 0.00421391]
 [ 0.02218996]
 [-0.07314412]
 [-0.07187766]
 [-0.08132535]
 [ 0.2754083 ]
 [-0.13849828]
 [-0.04612536]
 [-0.12871833]
 [ 0.11135274]
 [ 0.07258844]
 [ 0.00548284]
 [ 0.13295854]
 [-0.06191777]
 [ 0.0103477 ]
 [ 0.04656549]
 [-0.08387053]
 [-0.01034367]
 [ 0.04149286]
 [-0.02879538]
 [-0.12504215]
 [ 0.0422889 ]
 [ 0.02013977]
 [-0.21049291]
 [ 0.02143645]
 [ 0.03044065]
 [ 0.17689825]
 [ 0.04069966]
 [-0.03620092]
 [-0.09037015]
 [ 0.05390132]
 [ 0.17282731]
 [ 0.12575767]
 [ 0.00147319]
 [ 0.02686566]
 [ 0.02514355]
 [ 0.0072869 ]
 [ 0.01586113]
 [-0.02259369]
 [-0.01601401]
 [ 0.08794059]
 [-0.10401733]
 [ 0.02849538]
 [ 0.124119  ]
 [-0.01917065]
 [-0.05471045]
 [ 0.00787235]
 [ 0.08011039]
 [ 0.12065674]
 [ 0.08750521]
 [-0.05196902]
 [-0.0715685 ]
 [-0.01094137]
 [-0.01958217]
 [ 0.08038732]
 [ 0.01230352]
 [-0.04551851]
 [ 0.11971725]
 [ 0.09332697]
 [-0.02315815]
 [ 0.02319729]
 [-0.00120354]
 [-0.07432995]]

Fold: 0
Lambda: 2.5
[[  4.93782346e-01]
 [ -2.19473913e-02]
 [  1.58344838e-02]
 [  2.23934119e-01]
 [ -2.79473007e-02]
 [ -3.08181199e-02]
 [  8.23200408e-03]
 [  9.27855049e-02]
 [ -2.63994951e-01]
 [ -6.41420593e-02]
 [  5.46629602e-02]
 [ -5.35742087e-02]
 [  4.13359770e-02]
 [  1.67010252e-02]
 [ -1.24929550e-01]
 [  3.51231235e-02]
 [ -1.65584523e-01]
 [  7.69212049e-02]
 [  4.76173469e-02]
 [ -1.04723297e-01]
 [  1.29696823e-01]
 [ -3.48834318e-02]
 [ -1.45627192e-01]
 [ -2.64206759e-02]
 [ -4.19335955e-02]
 [  3.74855109e-02]
 [  3.86513513e-02]
 [  1.61746874e-02]
 [  1.10177746e-02]
 [ -1.46003019e-01]
 [ -7.29890003e-02]
 [  3.65798371e-02]
 [  4.83281666e-02]
 [ -1.36465683e-02]
 [  2.30974800e-01]
 [ -6.22857813e-02]
 [ -1.60872525e-03]
 [  7.30013224e-02]
 [  4.46314746e-02]
 [  2.03938207e-01]
 [  1.88385349e-01]
 [ -1.35979926e-01]
 [ -5.89396422e-02]
 [  2.05613557e-02]
 [ -3.72084089e-02]
 [ -1.80508520e-01]
 [ -4.01641225e-02]
 [ -5.68519837e-03]
 [  3.65901149e-02]
 [ -1.79392147e-01]
 [ -9.54736389e-02]
 [  1.13237756e-01]
 [ -1.23179948e-01]
 [ -1.84475339e-03]
 [  1.54638541e-02]
 [  6.51857684e-03]
 [ -2.75359622e-02]
 [ -4.37770899e-02]
 [ -1.06581905e-02]
 [  2.86083565e-02]
 [  5.62499476e-02]
 [ -2.90603503e-02]
 [ -1.68824060e-01]
 [ -3.27614431e-02]
 [ -1.14386126e-01]
 [  2.24905508e-01]
 [ -9.37462336e-02]
 [ -5.97100239e-02]
 [ -1.82333440e-01]
 [  2.58933333e-01]
 [  9.25448502e-02]
 [  2.47830098e-02]
 [  1.68045685e-01]
 [ -4.11282702e-02]
 [  7.62427429e-02]
 [  7.34161800e-02]
 [ -6.99700716e-02]
 [ -1.39902628e-02]
 [  3.88493383e-02]
 [ -2.79124506e-02]
 [ -1.16705824e-01]
 [  5.98259163e-02]
 [ -2.06871914e-03]
 [ -1.82639786e-01]
 [ -4.83708792e-02]
 [ -4.68638590e-06]
 [  2.41482001e-01]
 [  8.16670870e-02]
 [ -2.88027181e-02]
 [ -8.06503877e-02]
 [  1.11849398e-01]
 [  1.74631497e-01]
 [  1.05990472e-01]
 [  7.88109719e-04]
 [ -1.82056086e-02]
 [  4.59670101e-02]
 [  3.00057185e-03]
 [  1.87868033e-02]
 [  2.79499080e-02]
 [ -1.58048163e-02]
 [  9.49032578e-02]
 [ -1.17060972e-01]
 [ -2.75966690e-02]
 [  1.43069489e-01]
 [  2.79499080e-02]
 [ -5.69465463e-02]
 [ -5.15015150e-02]
 [ -4.74206668e-02]
 [  3.74038522e-02]
 [  5.74292565e-02]
 [ -4.84595528e-02]
 [ -1.12689494e-01]
 [ -3.69201244e-02]
 [ -2.54416346e-02]
 [  4.26440039e-02]
 [  2.26786003e-02]
 [ -5.99827924e-02]
 [  9.95452019e-02]
 [  6.49045041e-02]
 [  2.07990134e-02]
 [  4.15734876e-02]
 [ -2.62358295e-03]
 [ -3.79283935e-02]]

Fold: 1
Lambda: 2.5
[[  4.93782346e-01]
 [ -2.19473913e-02]
 [  1.58344838e-02]
 [  2.23934119e-01]
 [ -2.79473007e-02]
 [ -3.08181199e-02]
 [  8.23200408e-03]
 [  9.27855049e-02]
 [ -2.63994951e-01]
 [ -6.41420593e-02]
 [  5.46629602e-02]
 [ -5.35742087e-02]
 [  4.13359770e-02]
 [  1.67010252e-02]
 [ -1.24929550e-01]
 [  3.51231235e-02]
 [ -1.65584523e-01]
 [  7.69212049e-02]
 [  4.76173469e-02]
 [ -1.04723297e-01]
 [  1.29696823e-01]
 [ -3.48834318e-02]
 [ -1.45627192e-01]
 [ -2.64206759e-02]
 [ -4.19335955e-02]
 [  3.74855109e-02]
 [  3.86513513e-02]
 [  1.61746874e-02]
 [  1.10177746e-02]
 [ -1.46003019e-01]
 [ -7.29890003e-02]
 [  3.65798371e-02]
 [  4.83281666e-02]
 [ -1.36465683e-02]
 [  2.30974800e-01]
 [ -6.22857813e-02]
 [ -1.60872525e-03]
 [  7.30013224e-02]
 [  4.46314746e-02]
 [  2.03938207e-01]
 [  1.88385349e-01]
 [ -1.35979926e-01]
 [ -5.89396422e-02]
 [  2.05613557e-02]
 [ -3.72084089e-02]
 [ -1.80508520e-01]
 [ -4.01641225e-02]
 [ -5.68519837e-03]
 [  3.65901149e-02]
 [ -1.79392147e-01]
 [ -9.54736389e-02]
 [  1.13237756e-01]
 [ -1.23179948e-01]
 [ -1.84475339e-03]
 [  1.54638541e-02]
 [  6.51857684e-03]
 [ -2.75359622e-02]
 [ -4.37770899e-02]
 [ -1.06581905e-02]
 [  2.86083565e-02]
 [  5.62499476e-02]
 [ -2.90603503e-02]
 [ -1.68824060e-01]
 [ -3.27614431e-02]
 [ -1.14386126e-01]
 [  2.24905508e-01]
 [ -9.37462336e-02]
 [ -5.97100239e-02]
 [ -1.82333440e-01]
 [  2.58933333e-01]
 [  9.25448502e-02]
 [  2.47830098e-02]
 [  1.68045685e-01]
 [ -4.11282702e-02]
 [  7.62427429e-02]
 [  7.34161800e-02]
 [ -6.99700716e-02]
 [ -1.39902628e-02]
 [  3.88493383e-02]
 [ -2.79124506e-02]
 [ -1.16705824e-01]
 [  5.98259163e-02]
 [ -2.06871914e-03]
 [ -1.82639786e-01]
 [ -4.83708792e-02]
 [ -4.68638590e-06]
 [  2.41482001e-01]
 [  8.16670870e-02]
 [ -2.88027181e-02]
 [ -8.06503877e-02]
 [  1.11849398e-01]
 [  1.74631497e-01]
 [  1.05990472e-01]
 [  7.88109719e-04]
 [ -1.82056086e-02]
 [  4.59670101e-02]
 [  3.00057185e-03]
 [  1.87868033e-02]
 [  2.79499080e-02]
 [ -1.58048163e-02]
 [  9.49032578e-02]
 [ -1.17060972e-01]
 [ -2.75966690e-02]
 [  1.43069489e-01]
 [  2.79499080e-02]
 [ -5.69465463e-02]
 [ -5.15015150e-02]
 [ -4.74206668e-02]
 [  3.74038522e-02]
 [  5.74292565e-02]
 [ -4.84595528e-02]
 [ -1.12689494e-01]
 [ -3.69201244e-02]
 [ -2.54416346e-02]
 [  4.26440039e-02]
 [  2.26786003e-02]
 [ -5.99827924e-02]
 [  9.95452019e-02]
 [  6.49045041e-02]
 [  2.07990134e-02]
 [  4.15734876e-02]
 [ -2.62358295e-03]
 [ -3.79283935e-02]]

Fold: 2
Lambda: 2.5
[[  4.93782346e-01]
 [ -2.19473913e-02]
 [  1.58344838e-02]
 [  2.23934119e-01]
 [ -2.79473007e-02]
 [ -3.08181199e-02]
 [  8.23200408e-03]
 [  9.27855049e-02]
 [ -2.63994951e-01]
 [ -6.41420593e-02]
 [  5.46629602e-02]
 [ -5.35742087e-02]
 [  4.13359770e-02]
 [  1.67010252e-02]
 [ -1.24929550e-01]
 [  3.51231235e-02]
 [ -1.65584523e-01]
 [  7.69212049e-02]
 [  4.76173469e-02]
 [ -1.04723297e-01]
 [  1.29696823e-01]
 [ -3.48834318e-02]
 [ -1.45627192e-01]
 [ -2.64206759e-02]
 [ -4.19335955e-02]
 [  3.74855109e-02]
 [  3.86513513e-02]
 [  1.61746874e-02]
 [  1.10177746e-02]
 [ -1.46003019e-01]
 [ -7.29890003e-02]
 [  3.65798371e-02]
 [  4.83281666e-02]
 [ -1.36465683e-02]
 [  2.30974800e-01]
 [ -6.22857813e-02]
 [ -1.60872525e-03]
 [  7.30013224e-02]
 [  4.46314746e-02]
 [  2.03938207e-01]
 [  1.88385349e-01]
 [ -1.35979926e-01]
 [ -5.89396422e-02]
 [  2.05613557e-02]
 [ -3.72084089e-02]
 [ -1.80508520e-01]
 [ -4.01641225e-02]
 [ -5.68519837e-03]
 [  3.65901149e-02]
 [ -1.79392147e-01]
 [ -9.54736389e-02]
 [  1.13237756e-01]
 [ -1.23179948e-01]
 [ -1.84475339e-03]
 [  1.54638541e-02]
 [  6.51857684e-03]
 [ -2.75359622e-02]
 [ -4.37770899e-02]
 [ -1.06581905e-02]
 [  2.86083565e-02]
 [  5.62499476e-02]
 [ -2.90603503e-02]
 [ -1.68824060e-01]
 [ -3.27614431e-02]
 [ -1.14386126e-01]
 [  2.24905508e-01]
 [ -9.37462336e-02]
 [ -5.97100239e-02]
 [ -1.82333440e-01]
 [  2.58933333e-01]
 [  9.25448502e-02]
 [  2.47830098e-02]
 [  1.68045685e-01]
 [ -4.11282702e-02]
 [  7.62427429e-02]
 [  7.34161800e-02]
 [ -6.99700716e-02]
 [ -1.39902628e-02]
 [  3.88493383e-02]
 [ -2.79124506e-02]
 [ -1.16705824e-01]
 [  5.98259163e-02]
 [ -2.06871914e-03]
 [ -1.82639786e-01]
 [ -4.83708792e-02]
 [ -4.68638590e-06]
 [  2.41482001e-01]
 [  8.16670870e-02]
 [ -2.88027181e-02]
 [ -8.06503877e-02]
 [  1.11849398e-01]
 [  1.74631497e-01]
 [  1.05990472e-01]
 [  7.88109719e-04]
 [ -1.82056086e-02]
 [  4.59670101e-02]
 [  3.00057185e-03]
 [  1.87868033e-02]
 [  2.79499080e-02]
 [ -1.58048163e-02]
 [  9.49032578e-02]
 [ -1.17060972e-01]
 [ -2.75966690e-02]
 [  1.43069489e-01]
 [  2.79499080e-02]
 [ -5.69465463e-02]
 [ -5.15015150e-02]
 [ -4.74206668e-02]
 [  3.74038522e-02]
 [  5.74292565e-02]
 [ -4.84595528e-02]
 [ -1.12689494e-01]
 [ -3.69201244e-02]
 [ -2.54416346e-02]
 [  4.26440039e-02]
 [  2.26786003e-02]
 [ -5.99827924e-02]
 [  9.95452019e-02]
 [  6.49045041e-02]
 [  2.07990134e-02]
 [  4.15734876e-02]
 [ -2.62358295e-03]
 [ -3.79283935e-02]]

Fold: 3
Lambda: 2.5
[[  4.93782346e-01]
 [ -2.19473913e-02]
 [  1.58344838e-02]
 [  2.23934119e-01]
 [ -2.79473007e-02]
 [ -3.08181199e-02]
 [  8.23200408e-03]
 [  9.27855049e-02]
 [ -2.63994951e-01]
 [ -6.41420593e-02]
 [  5.46629602e-02]
 [ -5.35742087e-02]
 [  4.13359770e-02]
 [  1.67010252e-02]
 [ -1.24929550e-01]
 [  3.51231235e-02]
 [ -1.65584523e-01]
 [  7.69212049e-02]
 [  4.76173469e-02]
 [ -1.04723297e-01]
 [  1.29696823e-01]
 [ -3.48834318e-02]
 [ -1.45627192e-01]
 [ -2.64206759e-02]
 [ -4.19335955e-02]
 [  3.74855109e-02]
 [  3.86513513e-02]
 [  1.61746874e-02]
 [  1.10177746e-02]
 [ -1.46003019e-01]
 [ -7.29890003e-02]
 [  3.65798371e-02]
 [  4.83281666e-02]
 [ -1.36465683e-02]
 [  2.30974800e-01]
 [ -6.22857813e-02]
 [ -1.60872525e-03]
 [  7.30013224e-02]
 [  4.46314746e-02]
 [  2.03938207e-01]
 [  1.88385349e-01]
 [ -1.35979926e-01]
 [ -5.89396422e-02]
 [  2.05613557e-02]
 [ -3.72084089e-02]
 [ -1.80508520e-01]
 [ -4.01641225e-02]
 [ -5.68519837e-03]
 [  3.65901149e-02]
 [ -1.79392147e-01]
 [ -9.54736389e-02]
 [  1.13237756e-01]
 [ -1.23179948e-01]
 [ -1.84475339e-03]
 [  1.54638541e-02]
 [  6.51857684e-03]
 [ -2.75359622e-02]
 [ -4.37770899e-02]
 [ -1.06581905e-02]
 [  2.86083565e-02]
 [  5.62499476e-02]
 [ -2.90603503e-02]
 [ -1.68824060e-01]
 [ -3.27614431e-02]
 [ -1.14386126e-01]
 [  2.24905508e-01]
 [ -9.37462336e-02]
 [ -5.97100239e-02]
 [ -1.82333440e-01]
 [  2.58933333e-01]
 [  9.25448502e-02]
 [  2.47830098e-02]
 [  1.68045685e-01]
 [ -4.11282702e-02]
 [  7.62427429e-02]
 [  7.34161800e-02]
 [ -6.99700716e-02]
 [ -1.39902628e-02]
 [  3.88493383e-02]
 [ -2.79124506e-02]
 [ -1.16705824e-01]
 [  5.98259163e-02]
 [ -2.06871914e-03]
 [ -1.82639786e-01]
 [ -4.83708792e-02]
 [ -4.68638590e-06]
 [  2.41482001e-01]
 [  8.16670870e-02]
 [ -2.88027181e-02]
 [ -8.06503877e-02]
 [  1.11849398e-01]
 [  1.74631497e-01]
 [  1.05990472e-01]
 [  7.88109719e-04]
 [ -1.82056086e-02]
 [  4.59670101e-02]
 [  3.00057185e-03]
 [  1.87868033e-02]
 [  2.79499080e-02]
 [ -1.58048163e-02]
 [  9.49032578e-02]
 [ -1.17060972e-01]
 [ -2.75966690e-02]
 [  1.43069489e-01]
 [  2.79499080e-02]
 [ -5.69465463e-02]
 [ -5.15015150e-02]
 [ -4.74206668e-02]
 [  3.74038522e-02]
 [  5.74292565e-02]
 [ -4.84595528e-02]
 [ -1.12689494e-01]
 [ -3.69201244e-02]
 [ -2.54416346e-02]
 [  4.26440039e-02]
 [  2.26786003e-02]
 [ -5.99827924e-02]
 [  9.95452019e-02]
 [  6.49045041e-02]
 [  2.07990134e-02]
 [  4.15734876e-02]
 [ -2.62358295e-03]
 [ -3.79283935e-02]]

Fold: 4
Lambda: 2.5
[[  4.93782346e-01]
 [ -2.19473913e-02]
 [  1.58344838e-02]
 [  2.23934119e-01]
 [ -2.79473007e-02]
 [ -3.08181199e-02]
 [  8.23200408e-03]
 [  9.27855049e-02]
 [ -2.63994951e-01]
 [ -6.41420593e-02]
 [  5.46629602e-02]
 [ -5.35742087e-02]
 [  4.13359770e-02]
 [  1.67010252e-02]
 [ -1.24929550e-01]
 [  3.51231235e-02]
 [ -1.65584523e-01]
 [  7.69212049e-02]
 [  4.76173469e-02]
 [ -1.04723297e-01]
 [  1.29696823e-01]
 [ -3.48834318e-02]
 [ -1.45627192e-01]
 [ -2.64206759e-02]
 [ -4.19335955e-02]
 [  3.74855109e-02]
 [  3.86513513e-02]
 [  1.61746874e-02]
 [  1.10177746e-02]
 [ -1.46003019e-01]
 [ -7.29890003e-02]
 [  3.65798371e-02]
 [  4.83281666e-02]
 [ -1.36465683e-02]
 [  2.30974800e-01]
 [ -6.22857813e-02]
 [ -1.60872525e-03]
 [  7.30013224e-02]
 [  4.46314746e-02]
 [  2.03938207e-01]
 [  1.88385349e-01]
 [ -1.35979926e-01]
 [ -5.89396422e-02]
 [  2.05613557e-02]
 [ -3.72084089e-02]
 [ -1.80508520e-01]
 [ -4.01641225e-02]
 [ -5.68519837e-03]
 [  3.65901149e-02]
 [ -1.79392147e-01]
 [ -9.54736389e-02]
 [  1.13237756e-01]
 [ -1.23179948e-01]
 [ -1.84475339e-03]
 [  1.54638541e-02]
 [  6.51857684e-03]
 [ -2.75359622e-02]
 [ -4.37770899e-02]
 [ -1.06581905e-02]
 [  2.86083565e-02]
 [  5.62499476e-02]
 [ -2.90603503e-02]
 [ -1.68824060e-01]
 [ -3.27614431e-02]
 [ -1.14386126e-01]
 [  2.24905508e-01]
 [ -9.37462336e-02]
 [ -5.97100239e-02]
 [ -1.82333440e-01]
 [  2.58933333e-01]
 [  9.25448502e-02]
 [  2.47830098e-02]
 [  1.68045685e-01]
 [ -4.11282702e-02]
 [  7.62427429e-02]
 [  7.34161800e-02]
 [ -6.99700716e-02]
 [ -1.39902628e-02]
 [  3.88493383e-02]
 [ -2.79124506e-02]
 [ -1.16705824e-01]
 [  5.98259163e-02]
 [ -2.06871914e-03]
 [ -1.82639786e-01]
 [ -4.83708792e-02]
 [ -4.68638590e-06]
 [  2.41482001e-01]
 [  8.16670870e-02]
 [ -2.88027181e-02]
 [ -8.06503877e-02]
 [  1.11849398e-01]
 [  1.74631497e-01]
 [  1.05990472e-01]
 [  7.88109719e-04]
 [ -1.82056086e-02]
 [  4.59670101e-02]
 [  3.00057185e-03]
 [  1.87868033e-02]
 [  2.79499080e-02]
 [ -1.58048163e-02]
 [  9.49032578e-02]
 [ -1.17060972e-01]
 [ -2.75966690e-02]
 [  1.43069489e-01]
 [  2.79499080e-02]
 [ -5.69465463e-02]
 [ -5.15015150e-02]
 [ -4.74206668e-02]
 [  3.74038522e-02]
 [  5.74292565e-02]
 [ -4.84595528e-02]
 [ -1.12689494e-01]
 [ -3.69201244e-02]
 [ -2.54416346e-02]
 [  4.26440039e-02]
 [  2.26786003e-02]
 [ -5.99827924e-02]
 [  9.95452019e-02]
 [  6.49045041e-02]
 [  2.07990134e-02]
 [  4.15734876e-02]
 [ -2.62358295e-03]
 [ -3.79283935e-02]]

Fold: 0
Lambda: 3.0
[[  6.68932776e-01]
 [ -5.39006016e-02]
 [  1.75308303e-02]
 [  1.58829607e-01]
 [ -5.21208972e-02]
 [ -3.93139031e-02]
 [  6.26838020e-02]
 [  2.62613387e-02]
 [ -1.23822063e-01]
 [ -3.85564861e-02]
 [  4.09976423e-02]
 [ -8.29010803e-02]
 [  5.15436115e-02]
 [  3.06018956e-02]
 [ -1.23427460e-01]
 [  2.16987164e-02]
 [ -1.41819070e-01]
 [  8.40989139e-02]
 [  2.18274344e-02]
 [ -9.14558194e-02]
 [  2.20147643e-02]
 [ -5.42779722e-02]
 [ -1.69027982e-01]
 [ -2.28005235e-02]
 [ -2.66087563e-02]
 [  2.89214411e-02]
 [  4.25985397e-02]
 [  2.33790988e-02]
 [ -5.66676786e-04]
 [ -1.64334357e-01]
 [ -9.30127775e-02]
 [  6.73625313e-02]
 [  8.57769474e-02]
 [  2.59125217e-02]
 [  1.51348701e-01]
 [ -6.32059326e-02]
 [ -4.38537667e-02]
 [  8.19033489e-02]
 [  8.70284881e-02]
 [  1.38316248e-01]
 [  9.75225287e-02]
 [ -9.87778453e-02]
 [ -2.80622477e-02]
 [  1.58311884e-04]
 [ -7.02557382e-02]
 [ -1.96186269e-01]
 [ -2.02901678e-02]
 [ -1.07987006e-02]
 [  3.39061744e-02]
 [ -1.30000643e-01]
 [ -6.78171850e-02]
 [  1.83762497e-01]
 [ -9.74541619e-02]
 [  4.89386725e-02]
 [ -2.35147953e-02]
 [ -2.84821941e-02]
 [ -7.28872026e-03]
 [  1.05179668e-02]
 [ -4.11920920e-02]
 [  2.57751350e-02]
 [  5.48709348e-02]
 [ -4.45773114e-02]
 [ -1.25809848e-01]
 [ -4.66935314e-02]
 [ -3.96444358e-02]
 [  1.94648689e-01]
 [ -8.14154267e-02]
 [ -4.52754683e-02]
 [ -1.06206054e-01]
 [  1.10837422e-01]
 [  3.14964804e-02]
 [  1.58728148e-02]
 [  1.36712109e-01]
 [ -6.30741461e-02]
 [  2.71753119e-02]
 [  6.52585223e-02]
 [ -5.74351967e-02]
 [ -5.10162236e-03]
 [  1.17581027e-02]
 [ -2.76215332e-02]
 [ -9.26882733e-02]
 [  1.62822251e-02]
 [  7.03192370e-02]
 [ -1.42263876e-01]
 [ -5.67614916e-04]
 [  1.47683454e-02]
 [  1.50862305e-01]
 [  5.25102709e-02]
 [ -5.96202358e-02]
 [ -7.92914611e-02]
 [  1.49314891e-01]
 [  1.50053259e-01]
 [  7.59193883e-02]
 [ -1.94557980e-02]
 [ -2.60987378e-02]
 [  2.93626141e-02]
 [  2.48895913e-02]
 [ -1.32404927e-02]
 [ -1.13861250e-03]
 [ -1.42717796e-02]
 [  3.98427509e-02]
 [ -3.01651163e-02]
 [  4.10277416e-02]
 [  7.07175821e-02]
 [  3.48410061e-04]
 [ -6.01736204e-02]
 [ -6.75569031e-02]
 [ -4.96824477e-03]
 [  1.65900222e-02]
 [  7.44632209e-02]
 [ -1.02664000e-02]
 [ -1.77051257e-02]
 [  2.79009383e-03]
 [ -2.34025225e-02]
 [  2.34613673e-02]
 [ -2.38378576e-02]
 [ -1.68334453e-02]
 [  5.93787662e-02]
 [  1.05612092e-02]
 [ -1.42144802e-02]
 [  1.53689756e-02]
 [  7.45045073e-03]
 [ -6.26815083e-02]]

Fold: 1
Lambda: 3.0
[[  6.68932776e-01]
 [ -5.39006016e-02]
 [  1.75308303e-02]
 [  1.58829607e-01]
 [ -5.21208972e-02]
 [ -3.93139031e-02]
 [  6.26838020e-02]
 [  2.62613387e-02]
 [ -1.23822063e-01]
 [ -3.85564861e-02]
 [  4.09976423e-02]
 [ -8.29010803e-02]
 [  5.15436115e-02]
 [  3.06018956e-02]
 [ -1.23427460e-01]
 [  2.16987164e-02]
 [ -1.41819070e-01]
 [  8.40989139e-02]
 [  2.18274344e-02]
 [ -9.14558194e-02]
 [  2.20147643e-02]
 [ -5.42779722e-02]
 [ -1.69027982e-01]
 [ -2.28005235e-02]
 [ -2.66087563e-02]
 [  2.89214411e-02]
 [  4.25985397e-02]
 [  2.33790988e-02]
 [ -5.66676786e-04]
 [ -1.64334357e-01]
 [ -9.30127775e-02]
 [  6.73625313e-02]
 [  8.57769474e-02]
 [  2.59125217e-02]
 [  1.51348701e-01]
 [ -6.32059326e-02]
 [ -4.38537667e-02]
 [  8.19033489e-02]
 [  8.70284881e-02]
 [  1.38316248e-01]
 [  9.75225287e-02]
 [ -9.87778453e-02]
 [ -2.80622477e-02]
 [  1.58311884e-04]
 [ -7.02557382e-02]
 [ -1.96186269e-01]
 [ -2.02901678e-02]
 [ -1.07987006e-02]
 [  3.39061744e-02]
 [ -1.30000643e-01]
 [ -6.78171850e-02]
 [  1.83762497e-01]
 [ -9.74541619e-02]
 [  4.89386725e-02]
 [ -2.35147953e-02]
 [ -2.84821941e-02]
 [ -7.28872026e-03]
 [  1.05179668e-02]
 [ -4.11920920e-02]
 [  2.57751350e-02]
 [  5.48709348e-02]
 [ -4.45773114e-02]
 [ -1.25809848e-01]
 [ -4.66935314e-02]
 [ -3.96444358e-02]
 [  1.94648689e-01]
 [ -8.14154267e-02]
 [ -4.52754683e-02]
 [ -1.06206054e-01]
 [  1.10837422e-01]
 [  3.14964804e-02]
 [  1.58728148e-02]
 [  1.36712109e-01]
 [ -6.30741461e-02]
 [  2.71753119e-02]
 [  6.52585223e-02]
 [ -5.74351967e-02]
 [ -5.10162236e-03]
 [  1.17581027e-02]
 [ -2.76215332e-02]
 [ -9.26882733e-02]
 [  1.62822251e-02]
 [  7.03192370e-02]
 [ -1.42263876e-01]
 [ -5.67614916e-04]
 [  1.47683454e-02]
 [  1.50862305e-01]
 [  5.25102709e-02]
 [ -5.96202358e-02]
 [ -7.92914611e-02]
 [  1.49314891e-01]
 [  1.50053259e-01]
 [  7.59193883e-02]
 [ -1.94557980e-02]
 [ -2.60987378e-02]
 [  2.93626141e-02]
 [  2.48895913e-02]
 [ -1.32404927e-02]
 [ -1.13861250e-03]
 [ -1.42717796e-02]
 [  3.98427509e-02]
 [ -3.01651163e-02]
 [  4.10277416e-02]
 [  7.07175821e-02]
 [  3.48410061e-04]
 [ -6.01736204e-02]
 [ -6.75569031e-02]
 [ -4.96824477e-03]
 [  1.65900222e-02]
 [  7.44632209e-02]
 [ -1.02664000e-02]
 [ -1.77051257e-02]
 [  2.79009383e-03]
 [ -2.34025225e-02]
 [  2.34613673e-02]
 [ -2.38378576e-02]
 [ -1.68334453e-02]
 [  5.93787662e-02]
 [  1.05612092e-02]
 [ -1.42144802e-02]
 [  1.53689756e-02]
 [  7.45045073e-03]
 [ -6.26815083e-02]]

Fold: 2
Lambda: 3.0
[[  6.68932776e-01]
 [ -5.39006016e-02]
 [  1.75308303e-02]
 [  1.58829607e-01]
 [ -5.21208972e-02]
 [ -3.93139031e-02]
 [  6.26838020e-02]
 [  2.62613387e-02]
 [ -1.23822063e-01]
 [ -3.85564861e-02]
 [  4.09976423e-02]
 [ -8.29010803e-02]
 [  5.15436115e-02]
 [  3.06018956e-02]
 [ -1.23427460e-01]
 [  2.16987164e-02]
 [ -1.41819070e-01]
 [  8.40989139e-02]
 [  2.18274344e-02]
 [ -9.14558194e-02]
 [  2.20147643e-02]
 [ -5.42779722e-02]
 [ -1.69027982e-01]
 [ -2.28005235e-02]
 [ -2.66087563e-02]
 [  2.89214411e-02]
 [  4.25985397e-02]
 [  2.33790988e-02]
 [ -5.66676786e-04]
 [ -1.64334357e-01]
 [ -9.30127775e-02]
 [  6.73625313e-02]
 [  8.57769474e-02]
 [  2.59125217e-02]
 [  1.51348701e-01]
 [ -6.32059326e-02]
 [ -4.38537667e-02]
 [  8.19033489e-02]
 [  8.70284881e-02]
 [  1.38316248e-01]
 [  9.75225287e-02]
 [ -9.87778453e-02]
 [ -2.80622477e-02]
 [  1.58311884e-04]
 [ -7.02557382e-02]
 [ -1.96186269e-01]
 [ -2.02901678e-02]
 [ -1.07987006e-02]
 [  3.39061744e-02]
 [ -1.30000643e-01]
 [ -6.78171850e-02]
 [  1.83762497e-01]
 [ -9.74541619e-02]
 [  4.89386725e-02]
 [ -2.35147953e-02]
 [ -2.84821941e-02]
 [ -7.28872026e-03]
 [  1.05179668e-02]
 [ -4.11920920e-02]
 [  2.57751350e-02]
 [  5.48709348e-02]
 [ -4.45773114e-02]
 [ -1.25809848e-01]
 [ -4.66935314e-02]
 [ -3.96444358e-02]
 [  1.94648689e-01]
 [ -8.14154267e-02]
 [ -4.52754683e-02]
 [ -1.06206054e-01]
 [  1.10837422e-01]
 [  3.14964804e-02]
 [  1.58728148e-02]
 [  1.36712109e-01]
 [ -6.30741461e-02]
 [  2.71753119e-02]
 [  6.52585223e-02]
 [ -5.74351967e-02]
 [ -5.10162236e-03]
 [  1.17581027e-02]
 [ -2.76215332e-02]
 [ -9.26882733e-02]
 [  1.62822251e-02]
 [  7.03192370e-02]
 [ -1.42263876e-01]
 [ -5.67614916e-04]
 [  1.47683454e-02]
 [  1.50862305e-01]
 [  5.25102709e-02]
 [ -5.96202358e-02]
 [ -7.92914611e-02]
 [  1.49314891e-01]
 [  1.50053259e-01]
 [  7.59193883e-02]
 [ -1.94557980e-02]
 [ -2.60987378e-02]
 [  2.93626141e-02]
 [  2.48895913e-02]
 [ -1.32404927e-02]
 [ -1.13861250e-03]
 [ -1.42717796e-02]
 [  3.98427509e-02]
 [ -3.01651163e-02]
 [  4.10277416e-02]
 [  7.07175821e-02]
 [  3.48410061e-04]
 [ -6.01736204e-02]
 [ -6.75569031e-02]
 [ -4.96824477e-03]
 [  1.65900222e-02]
 [  7.44632209e-02]
 [ -1.02664000e-02]
 [ -1.77051257e-02]
 [  2.79009383e-03]
 [ -2.34025225e-02]
 [  2.34613673e-02]
 [ -2.38378576e-02]
 [ -1.68334453e-02]
 [  5.93787662e-02]
 [  1.05612092e-02]
 [ -1.42144802e-02]
 [  1.53689756e-02]
 [  7.45045073e-03]
 [ -6.26815083e-02]]

Fold: 3
Lambda: 3.0
[[  6.68932776e-01]
 [ -5.39006016e-02]
 [  1.75308303e-02]
 [  1.58829607e-01]
 [ -5.21208972e-02]
 [ -3.93139031e-02]
 [  6.26838020e-02]
 [  2.62613387e-02]
 [ -1.23822063e-01]
 [ -3.85564861e-02]
 [  4.09976423e-02]
 [ -8.29010803e-02]
 [  5.15436115e-02]
 [  3.06018956e-02]
 [ -1.23427460e-01]
 [  2.16987164e-02]
 [ -1.41819070e-01]
 [  8.40989139e-02]
 [  2.18274344e-02]
 [ -9.14558194e-02]
 [  2.20147643e-02]
 [ -5.42779722e-02]
 [ -1.69027982e-01]
 [ -2.28005235e-02]
 [ -2.66087563e-02]
 [  2.89214411e-02]
 [  4.25985397e-02]
 [  2.33790988e-02]
 [ -5.66676786e-04]
 [ -1.64334357e-01]
 [ -9.30127775e-02]
 [  6.73625313e-02]
 [  8.57769474e-02]
 [  2.59125217e-02]
 [  1.51348701e-01]
 [ -6.32059326e-02]
 [ -4.38537667e-02]
 [  8.19033489e-02]
 [  8.70284881e-02]
 [  1.38316248e-01]
 [  9.75225287e-02]
 [ -9.87778453e-02]
 [ -2.80622477e-02]
 [  1.58311884e-04]
 [ -7.02557382e-02]
 [ -1.96186269e-01]
 [ -2.02901678e-02]
 [ -1.07987006e-02]
 [  3.39061744e-02]
 [ -1.30000643e-01]
 [ -6.78171850e-02]
 [  1.83762497e-01]
 [ -9.74541619e-02]
 [  4.89386725e-02]
 [ -2.35147953e-02]
 [ -2.84821941e-02]
 [ -7.28872026e-03]
 [  1.05179668e-02]
 [ -4.11920920e-02]
 [  2.57751350e-02]
 [  5.48709348e-02]
 [ -4.45773114e-02]
 [ -1.25809848e-01]
 [ -4.66935314e-02]
 [ -3.96444358e-02]
 [  1.94648689e-01]
 [ -8.14154267e-02]
 [ -4.52754683e-02]
 [ -1.06206054e-01]
 [  1.10837422e-01]
 [  3.14964804e-02]
 [  1.58728148e-02]
 [  1.36712109e-01]
 [ -6.30741461e-02]
 [  2.71753119e-02]
 [  6.52585223e-02]
 [ -5.74351967e-02]
 [ -5.10162236e-03]
 [  1.17581027e-02]
 [ -2.76215332e-02]
 [ -9.26882733e-02]
 [  1.62822251e-02]
 [  7.03192370e-02]
 [ -1.42263876e-01]
 [ -5.67614916e-04]
 [  1.47683454e-02]
 [  1.50862305e-01]
 [  5.25102709e-02]
 [ -5.96202358e-02]
 [ -7.92914611e-02]
 [  1.49314891e-01]
 [  1.50053259e-01]
 [  7.59193883e-02]
 [ -1.94557980e-02]
 [ -2.60987378e-02]
 [  2.93626141e-02]
 [  2.48895913e-02]
 [ -1.32404927e-02]
 [ -1.13861250e-03]
 [ -1.42717796e-02]
 [  3.98427509e-02]
 [ -3.01651163e-02]
 [  4.10277416e-02]
 [  7.07175821e-02]
 [  3.48410061e-04]
 [ -6.01736204e-02]
 [ -6.75569031e-02]
 [ -4.96824477e-03]
 [  1.65900222e-02]
 [  7.44632209e-02]
 [ -1.02664000e-02]
 [ -1.77051257e-02]
 [  2.79009383e-03]
 [ -2.34025225e-02]
 [  2.34613673e-02]
 [ -2.38378576e-02]
 [ -1.68334453e-02]
 [  5.93787662e-02]
 [  1.05612092e-02]
 [ -1.42144802e-02]
 [  1.53689756e-02]
 [  7.45045073e-03]
 [ -6.26815083e-02]]

Fold: 4
Lambda: 3.0
[[  6.68932776e-01]
 [ -5.39006016e-02]
 [  1.75308303e-02]
 [  1.58829607e-01]
 [ -5.21208972e-02]
 [ -3.93139031e-02]
 [  6.26838020e-02]
 [  2.62613387e-02]
 [ -1.23822063e-01]
 [ -3.85564861e-02]
 [  4.09976423e-02]
 [ -8.29010803e-02]
 [  5.15436115e-02]
 [  3.06018956e-02]
 [ -1.23427460e-01]
 [  2.16987164e-02]
 [ -1.41819070e-01]
 [  8.40989139e-02]
 [  2.18274344e-02]
 [ -9.14558194e-02]
 [  2.20147643e-02]
 [ -5.42779722e-02]
 [ -1.69027982e-01]
 [ -2.28005235e-02]
 [ -2.66087563e-02]
 [  2.89214411e-02]
 [  4.25985397e-02]
 [  2.33790988e-02]
 [ -5.66676786e-04]
 [ -1.64334357e-01]
 [ -9.30127775e-02]
 [  6.73625313e-02]
 [  8.57769474e-02]
 [  2.59125217e-02]
 [  1.51348701e-01]
 [ -6.32059326e-02]
 [ -4.38537667e-02]
 [  8.19033489e-02]
 [  8.70284881e-02]
 [  1.38316248e-01]
 [  9.75225287e-02]
 [ -9.87778453e-02]
 [ -2.80622477e-02]
 [  1.58311884e-04]
 [ -7.02557382e-02]
 [ -1.96186269e-01]
 [ -2.02901678e-02]
 [ -1.07987006e-02]
 [  3.39061744e-02]
 [ -1.30000643e-01]
 [ -6.78171850e-02]
 [  1.83762497e-01]
 [ -9.74541619e-02]
 [  4.89386725e-02]
 [ -2.35147953e-02]
 [ -2.84821941e-02]
 [ -7.28872026e-03]
 [  1.05179668e-02]
 [ -4.11920920e-02]
 [  2.57751350e-02]
 [  5.48709348e-02]
 [ -4.45773114e-02]
 [ -1.25809848e-01]
 [ -4.66935314e-02]
 [ -3.96444358e-02]
 [  1.94648689e-01]
 [ -8.14154267e-02]
 [ -4.52754683e-02]
 [ -1.06206054e-01]
 [  1.10837422e-01]
 [  3.14964804e-02]
 [  1.58728148e-02]
 [  1.36712109e-01]
 [ -6.30741461e-02]
 [  2.71753119e-02]
 [  6.52585223e-02]
 [ -5.74351967e-02]
 [ -5.10162236e-03]
 [  1.17581027e-02]
 [ -2.76215332e-02]
 [ -9.26882733e-02]
 [  1.62822251e-02]
 [  7.03192370e-02]
 [ -1.42263876e-01]
 [ -5.67614916e-04]
 [  1.47683454e-02]
 [  1.50862305e-01]
 [  5.25102709e-02]
 [ -5.96202358e-02]
 [ -7.92914611e-02]
 [  1.49314891e-01]
 [  1.50053259e-01]
 [  7.59193883e-02]
 [ -1.94557980e-02]
 [ -2.60987378e-02]
 [  2.93626141e-02]
 [  2.48895913e-02]
 [ -1.32404927e-02]
 [ -1.13861250e-03]
 [ -1.42717796e-02]
 [  3.98427509e-02]
 [ -3.01651163e-02]
 [  4.10277416e-02]
 [  7.07175821e-02]
 [  3.48410061e-04]
 [ -6.01736204e-02]
 [ -6.75569031e-02]
 [ -4.96824477e-03]
 [  1.65900222e-02]
 [  7.44632209e-02]
 [ -1.02664000e-02]
 [ -1.77051257e-02]
 [  2.79009383e-03]
 [ -2.34025225e-02]
 [  2.34613673e-02]
 [ -2.38378576e-02]
 [ -1.68334453e-02]
 [  5.93787662e-02]
 [  1.05612092e-02]
 [ -1.42144802e-02]
 [  1.53689756e-02]
 [  7.45045073e-03]
 [ -6.26815083e-02]]

Fold: 0
Lambda: 3.5
[[  4.74325190e-01]
 [  1.60358267e-02]
 [  2.73581178e-02]
 [  1.56529681e-01]
 [ -4.48322242e-02]
 [ -7.72841788e-03]
 [  4.87260783e-02]
 [  2.53753180e-02]
 [ -1.55903801e-01]
 [ -3.46940774e-02]
 [  1.16441237e-01]
 [ -4.74717831e-03]
 [  2.95802483e-02]
 [  1.73452394e-02]
 [ -1.14363873e-01]
 [  3.57678016e-02]
 [ -1.47544568e-01]
 [ -2.67343004e-02]
 [  3.15087574e-02]
 [ -7.09143567e-02]
 [  7.48753848e-02]
 [  4.85724195e-03]
 [ -1.42418497e-01]
 [ -2.37528414e-02]
 [ -3.08654545e-02]
 [  2.57634526e-02]
 [  5.38090339e-02]
 [  2.68950729e-02]
 [ -1.12192186e-02]
 [ -1.13178695e-01]
 [ -6.39865273e-02]
 [  4.30604398e-02]
 [  5.61825319e-03]
 [ -1.58294050e-03]
 [  1.57585615e-01]
 [ -4.99543564e-02]
 [ -4.36702529e-03]
 [  2.69936660e-02]
 [  5.30228454e-02]
 [  1.70436933e-01]
 [  1.20207301e-01]
 [ -1.04155363e-01]
 [ -2.76612682e-02]
 [  2.81980712e-02]
 [ -2.90453027e-02]
 [ -1.48928798e-01]
 [ -7.75141613e-02]
 [ -1.40445605e-03]
 [  4.78177225e-02]
 [ -1.49765573e-01]
 [ -1.20699828e-01]
 [  1.98128562e-01]
 [ -1.29400821e-01]
 [  7.35372729e-03]
 [ -6.53490192e-03]
 [ -1.91385694e-02]
 [  3.19256640e-02]
 [ -2.54409068e-02]
 [ -1.92032209e-02]
 [  1.03070710e-01]
 [ -4.95332855e-02]
 [  5.86731904e-03]
 [ -1.12123220e-01]
 [ -8.26161678e-02]
 [ -6.83784764e-03]
 [  1.61865976e-01]
 [ -8.82527348e-02]
 [ -4.12964192e-02]
 [ -9.99241835e-02]
 [  1.45133671e-01]
 [  7.05067209e-02]
 [  1.83858891e-02]
 [  1.16215200e-01]
 [ -6.10508654e-02]
 [  3.03802767e-02]
 [  5.11099654e-02]
 [ -5.89814765e-02]
 [  1.29725993e-02]
 [ -8.65286225e-04]
 [  3.09607669e-02]
 [ -5.02494173e-02]
 [ -3.00908584e-04]
 [  2.20863995e-02]
 [ -1.85524882e-01]
 [  3.86717593e-02]
 [  1.61382911e-02]
 [  1.52883742e-01]
 [  6.35832346e-02]
 [ -6.62967138e-02]
 [ -7.48291816e-02]
 [  1.04593380e-01]
 [  1.69845049e-01]
 [  9.13522224e-02]
 [ -9.53641138e-03]
 [ -1.21079783e-03]
 [  4.50639617e-02]
 [  1.05627828e-02]
 [  3.97922591e-03]
 [  4.78642084e-02]
 [ -1.35736602e-02]
 [  8.24197952e-02]
 [ -7.11353073e-02]
 [  2.34951394e-02]
 [  8.09013390e-02]
 [  4.93375755e-02]
 [ -8.64911590e-02]
 [ -3.89898383e-02]
 [  5.34630396e-02]
 [  6.37779871e-02]
 [  7.76080841e-02]
 [ -2.73691500e-02]
 [ -9.02002617e-02]
 [  9.08138058e-03]
 [ -2.29596770e-02]
 [  1.88194068e-03]
 [  4.45276676e-03]
 [ -3.77242724e-02]
 [  2.74409700e-02]
 [  6.34273066e-02]
 [ -1.33318237e-02]
 [  3.78866044e-02]
 [  2.27316841e-02]
 [ -1.27904740e-01]]

Fold: 1
Lambda: 3.5
[[  4.74325190e-01]
 [  1.60358267e-02]
 [  2.73581178e-02]
 [  1.56529681e-01]
 [ -4.48322242e-02]
 [ -7.72841788e-03]
 [  4.87260783e-02]
 [  2.53753180e-02]
 [ -1.55903801e-01]
 [ -3.46940774e-02]
 [  1.16441237e-01]
 [ -4.74717831e-03]
 [  2.95802483e-02]
 [  1.73452394e-02]
 [ -1.14363873e-01]
 [  3.57678016e-02]
 [ -1.47544568e-01]
 [ -2.67343004e-02]
 [  3.15087574e-02]
 [ -7.09143567e-02]
 [  7.48753848e-02]
 [  4.85724195e-03]
 [ -1.42418497e-01]
 [ -2.37528414e-02]
 [ -3.08654545e-02]
 [  2.57634526e-02]
 [  5.38090339e-02]
 [  2.68950729e-02]
 [ -1.12192186e-02]
 [ -1.13178695e-01]
 [ -6.39865273e-02]
 [  4.30604398e-02]
 [  5.61825319e-03]
 [ -1.58294050e-03]
 [  1.57585615e-01]
 [ -4.99543564e-02]
 [ -4.36702529e-03]
 [  2.69936660e-02]
 [  5.30228454e-02]
 [  1.70436933e-01]
 [  1.20207301e-01]
 [ -1.04155363e-01]
 [ -2.76612682e-02]
 [  2.81980712e-02]
 [ -2.90453027e-02]
 [ -1.48928798e-01]
 [ -7.75141613e-02]
 [ -1.40445605e-03]
 [  4.78177225e-02]
 [ -1.49765573e-01]
 [ -1.20699828e-01]
 [  1.98128562e-01]
 [ -1.29400821e-01]
 [  7.35372729e-03]
 [ -6.53490192e-03]
 [ -1.91385694e-02]
 [  3.19256640e-02]
 [ -2.54409068e-02]
 [ -1.92032209e-02]
 [  1.03070710e-01]
 [ -4.95332855e-02]
 [  5.86731904e-03]
 [ -1.12123220e-01]
 [ -8.26161678e-02]
 [ -6.83784764e-03]
 [  1.61865976e-01]
 [ -8.82527348e-02]
 [ -4.12964192e-02]
 [ -9.99241835e-02]
 [  1.45133671e-01]
 [  7.05067209e-02]
 [  1.83858891e-02]
 [  1.16215200e-01]
 [ -6.10508654e-02]
 [  3.03802767e-02]
 [  5.11099654e-02]
 [ -5.89814765e-02]
 [  1.29725993e-02]
 [ -8.65286225e-04]
 [  3.09607669e-02]
 [ -5.02494173e-02]
 [ -3.00908584e-04]
 [  2.20863995e-02]
 [ -1.85524882e-01]
 [  3.86717593e-02]
 [  1.61382911e-02]
 [  1.52883742e-01]
 [  6.35832346e-02]
 [ -6.62967138e-02]
 [ -7.48291816e-02]
 [  1.04593380e-01]
 [  1.69845049e-01]
 [  9.13522224e-02]
 [ -9.53641138e-03]
 [ -1.21079783e-03]
 [  4.50639617e-02]
 [  1.05627828e-02]
 [  3.97922591e-03]
 [  4.78642084e-02]
 [ -1.35736602e-02]
 [  8.24197952e-02]
 [ -7.11353073e-02]
 [  2.34951394e-02]
 [  8.09013390e-02]
 [  4.93375755e-02]
 [ -8.64911590e-02]
 [ -3.89898383e-02]
 [  5.34630396e-02]
 [  6.37779871e-02]
 [  7.76080841e-02]
 [ -2.73691500e-02]
 [ -9.02002617e-02]
 [  9.08138058e-03]
 [ -2.29596770e-02]
 [  1.88194068e-03]
 [  4.45276676e-03]
 [ -3.77242724e-02]
 [  2.74409700e-02]
 [  6.34273066e-02]
 [ -1.33318237e-02]
 [  3.78866044e-02]
 [  2.27316841e-02]
 [ -1.27904740e-01]]

Fold: 2
Lambda: 3.5
[[  4.74325190e-01]
 [  1.60358267e-02]
 [  2.73581178e-02]
 [  1.56529681e-01]
 [ -4.48322242e-02]
 [ -7.72841788e-03]
 [  4.87260783e-02]
 [  2.53753180e-02]
 [ -1.55903801e-01]
 [ -3.46940774e-02]
 [  1.16441237e-01]
 [ -4.74717831e-03]
 [  2.95802483e-02]
 [  1.73452394e-02]
 [ -1.14363873e-01]
 [  3.57678016e-02]
 [ -1.47544568e-01]
 [ -2.67343004e-02]
 [  3.15087574e-02]
 [ -7.09143567e-02]
 [  7.48753848e-02]
 [  4.85724195e-03]
 [ -1.42418497e-01]
 [ -2.37528414e-02]
 [ -3.08654545e-02]
 [  2.57634526e-02]
 [  5.38090339e-02]
 [  2.68950729e-02]
 [ -1.12192186e-02]
 [ -1.13178695e-01]
 [ -6.39865273e-02]
 [  4.30604398e-02]
 [  5.61825319e-03]
 [ -1.58294050e-03]
 [  1.57585615e-01]
 [ -4.99543564e-02]
 [ -4.36702529e-03]
 [  2.69936660e-02]
 [  5.30228454e-02]
 [  1.70436933e-01]
 [  1.20207301e-01]
 [ -1.04155363e-01]
 [ -2.76612682e-02]
 [  2.81980712e-02]
 [ -2.90453027e-02]
 [ -1.48928798e-01]
 [ -7.75141613e-02]
 [ -1.40445605e-03]
 [  4.78177225e-02]
 [ -1.49765573e-01]
 [ -1.20699828e-01]
 [  1.98128562e-01]
 [ -1.29400821e-01]
 [  7.35372729e-03]
 [ -6.53490192e-03]
 [ -1.91385694e-02]
 [  3.19256640e-02]
 [ -2.54409068e-02]
 [ -1.92032209e-02]
 [  1.03070710e-01]
 [ -4.95332855e-02]
 [  5.86731904e-03]
 [ -1.12123220e-01]
 [ -8.26161678e-02]
 [ -6.83784764e-03]
 [  1.61865976e-01]
 [ -8.82527348e-02]
 [ -4.12964192e-02]
 [ -9.99241835e-02]
 [  1.45133671e-01]
 [  7.05067209e-02]
 [  1.83858891e-02]
 [  1.16215200e-01]
 [ -6.10508654e-02]
 [  3.03802767e-02]
 [  5.11099654e-02]
 [ -5.89814765e-02]
 [  1.29725993e-02]
 [ -8.65286225e-04]
 [  3.09607669e-02]
 [ -5.02494173e-02]
 [ -3.00908584e-04]
 [  2.20863995e-02]
 [ -1.85524882e-01]
 [  3.86717593e-02]
 [  1.61382911e-02]
 [  1.52883742e-01]
 [  6.35832346e-02]
 [ -6.62967138e-02]
 [ -7.48291816e-02]
 [  1.04593380e-01]
 [  1.69845049e-01]
 [  9.13522224e-02]
 [ -9.53641138e-03]
 [ -1.21079783e-03]
 [  4.50639617e-02]
 [  1.05627828e-02]
 [  3.97922591e-03]
 [  4.78642084e-02]
 [ -1.35736602e-02]
 [  8.24197952e-02]
 [ -7.11353073e-02]
 [  2.34951394e-02]
 [  8.09013390e-02]
 [  4.93375755e-02]
 [ -8.64911590e-02]
 [ -3.89898383e-02]
 [  5.34630396e-02]
 [  6.37779871e-02]
 [  7.76080841e-02]
 [ -2.73691500e-02]
 [ -9.02002617e-02]
 [  9.08138058e-03]
 [ -2.29596770e-02]
 [  1.88194068e-03]
 [  4.45276676e-03]
 [ -3.77242724e-02]
 [  2.74409700e-02]
 [  6.34273066e-02]
 [ -1.33318237e-02]
 [  3.78866044e-02]
 [  2.27316841e-02]
 [ -1.27904740e-01]]

Fold: 3
Lambda: 3.5
[[  4.74325190e-01]
 [  1.60358267e-02]
 [  2.73581178e-02]
 [  1.56529681e-01]
 [ -4.48322242e-02]
 [ -7.72841788e-03]
 [  4.87260783e-02]
 [  2.53753180e-02]
 [ -1.55903801e-01]
 [ -3.46940774e-02]
 [  1.16441237e-01]
 [ -4.74717831e-03]
 [  2.95802483e-02]
 [  1.73452394e-02]
 [ -1.14363873e-01]
 [  3.57678016e-02]
 [ -1.47544568e-01]
 [ -2.67343004e-02]
 [  3.15087574e-02]
 [ -7.09143567e-02]
 [  7.48753848e-02]
 [  4.85724195e-03]
 [ -1.42418497e-01]
 [ -2.37528414e-02]
 [ -3.08654545e-02]
 [  2.57634526e-02]
 [  5.38090339e-02]
 [  2.68950729e-02]
 [ -1.12192186e-02]
 [ -1.13178695e-01]
 [ -6.39865273e-02]
 [  4.30604398e-02]
 [  5.61825319e-03]
 [ -1.58294050e-03]
 [  1.57585615e-01]
 [ -4.99543564e-02]
 [ -4.36702529e-03]
 [  2.69936660e-02]
 [  5.30228454e-02]
 [  1.70436933e-01]
 [  1.20207301e-01]
 [ -1.04155363e-01]
 [ -2.76612682e-02]
 [  2.81980712e-02]
 [ -2.90453027e-02]
 [ -1.48928798e-01]
 [ -7.75141613e-02]
 [ -1.40445605e-03]
 [  4.78177225e-02]
 [ -1.49765573e-01]
 [ -1.20699828e-01]
 [  1.98128562e-01]
 [ -1.29400821e-01]
 [  7.35372729e-03]
 [ -6.53490192e-03]
 [ -1.91385694e-02]
 [  3.19256640e-02]
 [ -2.54409068e-02]
 [ -1.92032209e-02]
 [  1.03070710e-01]
 [ -4.95332855e-02]
 [  5.86731904e-03]
 [ -1.12123220e-01]
 [ -8.26161678e-02]
 [ -6.83784764e-03]
 [  1.61865976e-01]
 [ -8.82527348e-02]
 [ -4.12964192e-02]
 [ -9.99241835e-02]
 [  1.45133671e-01]
 [  7.05067209e-02]
 [  1.83858891e-02]
 [  1.16215200e-01]
 [ -6.10508654e-02]
 [  3.03802767e-02]
 [  5.11099654e-02]
 [ -5.89814765e-02]
 [  1.29725993e-02]
 [ -8.65286225e-04]
 [  3.09607669e-02]
 [ -5.02494173e-02]
 [ -3.00908584e-04]
 [  2.20863995e-02]
 [ -1.85524882e-01]
 [  3.86717593e-02]
 [  1.61382911e-02]
 [  1.52883742e-01]
 [  6.35832346e-02]
 [ -6.62967138e-02]
 [ -7.48291816e-02]
 [  1.04593380e-01]
 [  1.69845049e-01]
 [  9.13522224e-02]
 [ -9.53641138e-03]
 [ -1.21079783e-03]
 [  4.50639617e-02]
 [  1.05627828e-02]
 [  3.97922591e-03]
 [  4.78642084e-02]
 [ -1.35736602e-02]
 [  8.24197952e-02]
 [ -7.11353073e-02]
 [  2.34951394e-02]
 [  8.09013390e-02]
 [  4.93375755e-02]
 [ -8.64911590e-02]
 [ -3.89898383e-02]
 [  5.34630396e-02]
 [  6.37779871e-02]
 [  7.76080841e-02]
 [ -2.73691500e-02]
 [ -9.02002617e-02]
 [  9.08138058e-03]
 [ -2.29596770e-02]
 [  1.88194068e-03]
 [  4.45276676e-03]
 [ -3.77242724e-02]
 [  2.74409700e-02]
 [  6.34273066e-02]
 [ -1.33318237e-02]
 [  3.78866044e-02]
 [  2.27316841e-02]
 [ -1.27904740e-01]]

Fold: 4
Lambda: 3.5
[[  4.74325190e-01]
 [  1.60358267e-02]
 [  2.73581178e-02]
 [  1.56529681e-01]
 [ -4.48322242e-02]
 [ -7.72841788e-03]
 [  4.87260783e-02]
 [  2.53753180e-02]
 [ -1.55903801e-01]
 [ -3.46940774e-02]
 [  1.16441237e-01]
 [ -4.74717831e-03]
 [  2.95802483e-02]
 [  1.73452394e-02]
 [ -1.14363873e-01]
 [  3.57678016e-02]
 [ -1.47544568e-01]
 [ -2.67343004e-02]
 [  3.15087574e-02]
 [ -7.09143567e-02]
 [  7.48753848e-02]
 [  4.85724195e-03]
 [ -1.42418497e-01]
 [ -2.37528414e-02]
 [ -3.08654545e-02]
 [  2.57634526e-02]
 [  5.38090339e-02]
 [  2.68950729e-02]
 [ -1.12192186e-02]
 [ -1.13178695e-01]
 [ -6.39865273e-02]
 [  4.30604398e-02]
 [  5.61825319e-03]
 [ -1.58294050e-03]
 [  1.57585615e-01]
 [ -4.99543564e-02]
 [ -4.36702529e-03]
 [  2.69936660e-02]
 [  5.30228454e-02]
 [  1.70436933e-01]
 [  1.20207301e-01]
 [ -1.04155363e-01]
 [ -2.76612682e-02]
 [  2.81980712e-02]
 [ -2.90453027e-02]
 [ -1.48928798e-01]
 [ -7.75141613e-02]
 [ -1.40445605e-03]
 [  4.78177225e-02]
 [ -1.49765573e-01]
 [ -1.20699828e-01]
 [  1.98128562e-01]
 [ -1.29400821e-01]
 [  7.35372729e-03]
 [ -6.53490192e-03]
 [ -1.91385694e-02]
 [  3.19256640e-02]
 [ -2.54409068e-02]
 [ -1.92032209e-02]
 [  1.03070710e-01]
 [ -4.95332855e-02]
 [  5.86731904e-03]
 [ -1.12123220e-01]
 [ -8.26161678e-02]
 [ -6.83784764e-03]
 [  1.61865976e-01]
 [ -8.82527348e-02]
 [ -4.12964192e-02]
 [ -9.99241835e-02]
 [  1.45133671e-01]
 [  7.05067209e-02]
 [  1.83858891e-02]
 [  1.16215200e-01]
 [ -6.10508654e-02]
 [  3.03802767e-02]
 [  5.11099654e-02]
 [ -5.89814765e-02]
 [  1.29725993e-02]
 [ -8.65286225e-04]
 [  3.09607669e-02]
 [ -5.02494173e-02]
 [ -3.00908584e-04]
 [  2.20863995e-02]
 [ -1.85524882e-01]
 [  3.86717593e-02]
 [  1.61382911e-02]
 [  1.52883742e-01]
 [  6.35832346e-02]
 [ -6.62967138e-02]
 [ -7.48291816e-02]
 [  1.04593380e-01]
 [  1.69845049e-01]
 [  9.13522224e-02]
 [ -9.53641138e-03]
 [ -1.21079783e-03]
 [  4.50639617e-02]
 [  1.05627828e-02]
 [  3.97922591e-03]
 [  4.78642084e-02]
 [ -1.35736602e-02]
 [  8.24197952e-02]
 [ -7.11353073e-02]
 [  2.34951394e-02]
 [  8.09013390e-02]
 [  4.93375755e-02]
 [ -8.64911590e-02]
 [ -3.89898383e-02]
 [  5.34630396e-02]
 [  6.37779871e-02]
 [  7.76080841e-02]
 [ -2.73691500e-02]
 [ -9.02002617e-02]
 [  9.08138058e-03]
 [ -2.29596770e-02]
 [  1.88194068e-03]
 [  4.45276676e-03]
 [ -3.77242724e-02]
 [  2.74409700e-02]
 [  6.34273066e-02]
 [ -1.33318237e-02]
 [  3.78866044e-02]
 [  2.27316841e-02]
 [ -1.27904740e-01]]

Fold: 0
Lambda: 4.0
[[  6.01547955e-01]
 [ -2.08641189e-02]
 [  3.65083242e-02]
 [  1.25025145e-01]
 [ -6.46287155e-02]
 [ -1.63015325e-02]
 [  7.49155156e-02]
 [  4.53570024e-03]
 [ -1.46595279e-01]
 [ -7.51516465e-03]
 [ -1.65222466e-04]
 [ -5.03059380e-02]
 [  3.79195580e-02]
 [  3.56771115e-02]
 [ -9.63972804e-02]
 [  3.11627942e-02]
 [ -1.39717849e-01]
 [  1.16817818e-01]
 [  1.71568101e-03]
 [ -6.62276019e-02]
 [  9.47587474e-02]
 [  2.12327061e-02]
 [ -1.73843450e-01]
 [ -3.81392113e-02]
 [ -3.11723086e-02]
 [  1.26344501e-02]
 [  4.39965901e-02]
 [  2.25466912e-02]
 [ -8.64477818e-03]
 [ -1.16295289e-01]
 [ -8.91565517e-02]
 [  6.56934636e-02]
 [  2.26292593e-02]
 [ -5.69928195e-02]
 [  1.16692190e-01]
 [ -5.93016819e-02]
 [ -7.42880493e-03]
 [  5.87814955e-02]
 [  5.39636975e-02]
 [  1.06623570e-01]
 [  9.19161572e-02]
 [ -3.06639303e-02]
 [  5.90998111e-03]
 [  4.65043387e-02]
 [ -8.22644297e-02]
 [ -2.01857426e-01]
 [ -2.06813636e-02]
 [ -1.40736287e-02]
 [  2.79489155e-02]
 [ -1.47116352e-01]
 [ -6.30872292e-02]
 [  1.41501336e-01]
 [ -1.03923696e-01]
 [  3.16770729e-02]
 [ -2.58591415e-02]
 [ -2.26363026e-02]
 [  3.09346043e-02]
 [ -2.95735156e-02]
 [  1.82462586e-03]
 [  9.24391162e-02]
 [  1.98038447e-02]
 [ -4.78380874e-02]
 [ -1.57531256e-01]
 [ -5.96335490e-02]
 [ -3.68465413e-02]
 [  1.67244743e-01]
 [ -5.61541040e-02]
 [ -4.68158252e-02]
 [ -1.06726847e-01]
 [  9.91625790e-02]
 [  8.52025733e-02]
 [  1.66096553e-02]
 [  1.35352466e-01]
 [ -6.07075114e-02]
 [  4.19526800e-02]
 [  4.42112686e-02]
 [ -6.58344978e-02]
 [ -1.81321682e-02]
 [  2.00578024e-02]
 [ -8.14066032e-03]
 [ -7.92100577e-02]
 [  5.55756707e-03]
 [  1.99647788e-02]
 [ -2.19486528e-01]
 [  2.90950191e-02]
 [ -2.64540317e-04]
 [  2.05442674e-01]
 [  5.49754042e-02]
 [ -8.47202503e-03]
 [ -8.70408316e-02]
 [  1.32637357e-01]
 [  1.19048974e-01]
 [  5.05069532e-02]
 [  2.15021503e-03]
 [  1.98466122e-02]
 [  2.37815860e-02]
 [  2.82079859e-03]
 [ -2.15433016e-03]
 [ -1.33724992e-02]
 [ -1.88895023e-02]
 [  4.41844111e-02]
 [ -7.21971138e-02]
 [  5.27840282e-02]
 [  8.06571247e-02]
 [ -1.15477641e-02]
 [ -1.15186699e-01]
 [ -5.89475087e-03]
 [  8.38692647e-02]
 [  8.59991585e-02]
 [  6.54860313e-02]
 [ -4.43728347e-02]
 [ -5.26439519e-02]
 [ -1.41881087e-02]
 [  2.89253158e-03]
 [  3.06264815e-02]
 [ -1.83388831e-02]
 [ -4.24140136e-02]
 [  9.26757182e-02]
 [  1.65977755e-02]
 [ -2.68467277e-02]
 [  2.93770519e-02]
 [  1.00574398e-02]
 [ -6.81201223e-02]]

Fold: 1
Lambda: 4.0
[[  6.01547955e-01]
 [ -2.08641189e-02]
 [  3.65083242e-02]
 [  1.25025145e-01]
 [ -6.46287155e-02]
 [ -1.63015325e-02]
 [  7.49155156e-02]
 [  4.53570024e-03]
 [ -1.46595279e-01]
 [ -7.51516465e-03]
 [ -1.65222466e-04]
 [ -5.03059380e-02]
 [  3.79195580e-02]
 [  3.56771115e-02]
 [ -9.63972804e-02]
 [  3.11627942e-02]
 [ -1.39717849e-01]
 [  1.16817818e-01]
 [  1.71568101e-03]
 [ -6.62276019e-02]
 [  9.47587474e-02]
 [  2.12327061e-02]
 [ -1.73843450e-01]
 [ -3.81392113e-02]
 [ -3.11723086e-02]
 [  1.26344501e-02]
 [  4.39965901e-02]
 [  2.25466912e-02]
 [ -8.64477818e-03]
 [ -1.16295289e-01]
 [ -8.91565517e-02]
 [  6.56934636e-02]
 [  2.26292593e-02]
 [ -5.69928195e-02]
 [  1.16692190e-01]
 [ -5.93016819e-02]
 [ -7.42880493e-03]
 [  5.87814955e-02]
 [  5.39636975e-02]
 [  1.06623570e-01]
 [  9.19161572e-02]
 [ -3.06639303e-02]
 [  5.90998111e-03]
 [  4.65043387e-02]
 [ -8.22644297e-02]
 [ -2.01857426e-01]
 [ -2.06813636e-02]
 [ -1.40736287e-02]
 [  2.79489155e-02]
 [ -1.47116352e-01]
 [ -6.30872292e-02]
 [  1.41501336e-01]
 [ -1.03923696e-01]
 [  3.16770729e-02]
 [ -2.58591415e-02]
 [ -2.26363026e-02]
 [  3.09346043e-02]
 [ -2.95735156e-02]
 [  1.82462586e-03]
 [  9.24391162e-02]
 [  1.98038447e-02]
 [ -4.78380874e-02]
 [ -1.57531256e-01]
 [ -5.96335490e-02]
 [ -3.68465413e-02]
 [  1.67244743e-01]
 [ -5.61541040e-02]
 [ -4.68158252e-02]
 [ -1.06726847e-01]
 [  9.91625790e-02]
 [  8.52025733e-02]
 [  1.66096553e-02]
 [  1.35352466e-01]
 [ -6.07075114e-02]
 [  4.19526800e-02]
 [  4.42112686e-02]
 [ -6.58344978e-02]
 [ -1.81321682e-02]
 [  2.00578024e-02]
 [ -8.14066032e-03]
 [ -7.92100577e-02]
 [  5.55756707e-03]
 [  1.99647788e-02]
 [ -2.19486528e-01]
 [  2.90950191e-02]
 [ -2.64540317e-04]
 [  2.05442674e-01]
 [  5.49754042e-02]
 [ -8.47202503e-03]
 [ -8.70408316e-02]
 [  1.32637357e-01]
 [  1.19048974e-01]
 [  5.05069532e-02]
 [  2.15021503e-03]
 [  1.98466122e-02]
 [  2.37815860e-02]
 [  2.82079859e-03]
 [ -2.15433016e-03]
 [ -1.33724992e-02]
 [ -1.88895023e-02]
 [  4.41844111e-02]
 [ -7.21971138e-02]
 [  5.27840282e-02]
 [  8.06571247e-02]
 [ -1.15477641e-02]
 [ -1.15186699e-01]
 [ -5.89475087e-03]
 [  8.38692647e-02]
 [  8.59991585e-02]
 [  6.54860313e-02]
 [ -4.43728347e-02]
 [ -5.26439519e-02]
 [ -1.41881087e-02]
 [  2.89253158e-03]
 [  3.06264815e-02]
 [ -1.83388831e-02]
 [ -4.24140136e-02]
 [  9.26757182e-02]
 [  1.65977755e-02]
 [ -2.68467277e-02]
 [  2.93770519e-02]
 [  1.00574398e-02]
 [ -6.81201223e-02]]

Fold: 2
Lambda: 4.0
[[  6.01547955e-01]
 [ -2.08641189e-02]
 [  3.65083242e-02]
 [  1.25025145e-01]
 [ -6.46287155e-02]
 [ -1.63015325e-02]
 [  7.49155156e-02]
 [  4.53570024e-03]
 [ -1.46595279e-01]
 [ -7.51516465e-03]
 [ -1.65222466e-04]
 [ -5.03059380e-02]
 [  3.79195580e-02]
 [  3.56771115e-02]
 [ -9.63972804e-02]
 [  3.11627942e-02]
 [ -1.39717849e-01]
 [  1.16817818e-01]
 [  1.71568101e-03]
 [ -6.62276019e-02]
 [  9.47587474e-02]
 [  2.12327061e-02]
 [ -1.73843450e-01]
 [ -3.81392113e-02]
 [ -3.11723086e-02]
 [  1.26344501e-02]
 [  4.39965901e-02]
 [  2.25466912e-02]
 [ -8.64477818e-03]
 [ -1.16295289e-01]
 [ -8.91565517e-02]
 [  6.56934636e-02]
 [  2.26292593e-02]
 [ -5.69928195e-02]
 [  1.16692190e-01]
 [ -5.93016819e-02]
 [ -7.42880493e-03]
 [  5.87814955e-02]
 [  5.39636975e-02]
 [  1.06623570e-01]
 [  9.19161572e-02]
 [ -3.06639303e-02]
 [  5.90998111e-03]
 [  4.65043387e-02]
 [ -8.22644297e-02]
 [ -2.01857426e-01]
 [ -2.06813636e-02]
 [ -1.40736287e-02]
 [  2.79489155e-02]
 [ -1.47116352e-01]
 [ -6.30872292e-02]
 [  1.41501336e-01]
 [ -1.03923696e-01]
 [  3.16770729e-02]
 [ -2.58591415e-02]
 [ -2.26363026e-02]
 [  3.09346043e-02]
 [ -2.95735156e-02]
 [  1.82462586e-03]
 [  9.24391162e-02]
 [  1.98038447e-02]
 [ -4.78380874e-02]
 [ -1.57531256e-01]
 [ -5.96335490e-02]
 [ -3.68465413e-02]
 [  1.67244743e-01]
 [ -5.61541040e-02]
 [ -4.68158252e-02]
 [ -1.06726847e-01]
 [  9.91625790e-02]
 [  8.52025733e-02]
 [  1.66096553e-02]
 [  1.35352466e-01]
 [ -6.07075114e-02]
 [  4.19526800e-02]
 [  4.42112686e-02]
 [ -6.58344978e-02]
 [ -1.81321682e-02]
 [  2.00578024e-02]
 [ -8.14066032e-03]
 [ -7.92100577e-02]
 [  5.55756707e-03]
 [  1.99647788e-02]
 [ -2.19486528e-01]
 [  2.90950191e-02]
 [ -2.64540317e-04]
 [  2.05442674e-01]
 [  5.49754042e-02]
 [ -8.47202503e-03]
 [ -8.70408316e-02]
 [  1.32637357e-01]
 [  1.19048974e-01]
 [  5.05069532e-02]
 [  2.15021503e-03]
 [  1.98466122e-02]
 [  2.37815860e-02]
 [  2.82079859e-03]
 [ -2.15433016e-03]
 [ -1.33724992e-02]
 [ -1.88895023e-02]
 [  4.41844111e-02]
 [ -7.21971138e-02]
 [  5.27840282e-02]
 [  8.06571247e-02]
 [ -1.15477641e-02]
 [ -1.15186699e-01]
 [ -5.89475087e-03]
 [  8.38692647e-02]
 [  8.59991585e-02]
 [  6.54860313e-02]
 [ -4.43728347e-02]
 [ -5.26439519e-02]
 [ -1.41881087e-02]
 [  2.89253158e-03]
 [  3.06264815e-02]
 [ -1.83388831e-02]
 [ -4.24140136e-02]
 [  9.26757182e-02]
 [  1.65977755e-02]
 [ -2.68467277e-02]
 [  2.93770519e-02]
 [  1.00574398e-02]
 [ -6.81201223e-02]]

Fold: 3
Lambda: 4.0
[[  6.01547955e-01]
 [ -2.08641189e-02]
 [  3.65083242e-02]
 [  1.25025145e-01]
 [ -6.46287155e-02]
 [ -1.63015325e-02]
 [  7.49155156e-02]
 [  4.53570024e-03]
 [ -1.46595279e-01]
 [ -7.51516465e-03]
 [ -1.65222466e-04]
 [ -5.03059380e-02]
 [  3.79195580e-02]
 [  3.56771115e-02]
 [ -9.63972804e-02]
 [  3.11627942e-02]
 [ -1.39717849e-01]
 [  1.16817818e-01]
 [  1.71568101e-03]
 [ -6.62276019e-02]
 [  9.47587474e-02]
 [  2.12327061e-02]
 [ -1.73843450e-01]
 [ -3.81392113e-02]
 [ -3.11723086e-02]
 [  1.26344501e-02]
 [  4.39965901e-02]
 [  2.25466912e-02]
 [ -8.64477818e-03]
 [ -1.16295289e-01]
 [ -8.91565517e-02]
 [  6.56934636e-02]
 [  2.26292593e-02]
 [ -5.69928195e-02]
 [  1.16692190e-01]
 [ -5.93016819e-02]
 [ -7.42880493e-03]
 [  5.87814955e-02]
 [  5.39636975e-02]
 [  1.06623570e-01]
 [  9.19161572e-02]
 [ -3.06639303e-02]
 [  5.90998111e-03]
 [  4.65043387e-02]
 [ -8.22644297e-02]
 [ -2.01857426e-01]
 [ -2.06813636e-02]
 [ -1.40736287e-02]
 [  2.79489155e-02]
 [ -1.47116352e-01]
 [ -6.30872292e-02]
 [  1.41501336e-01]
 [ -1.03923696e-01]
 [  3.16770729e-02]
 [ -2.58591415e-02]
 [ -2.26363026e-02]
 [  3.09346043e-02]
 [ -2.95735156e-02]
 [  1.82462586e-03]
 [  9.24391162e-02]
 [  1.98038447e-02]
 [ -4.78380874e-02]
 [ -1.57531256e-01]
 [ -5.96335490e-02]
 [ -3.68465413e-02]
 [  1.67244743e-01]
 [ -5.61541040e-02]
 [ -4.68158252e-02]
 [ -1.06726847e-01]
 [  9.91625790e-02]
 [  8.52025733e-02]
 [  1.66096553e-02]
 [  1.35352466e-01]
 [ -6.07075114e-02]
 [  4.19526800e-02]
 [  4.42112686e-02]
 [ -6.58344978e-02]
 [ -1.81321682e-02]
 [  2.00578024e-02]
 [ -8.14066032e-03]
 [ -7.92100577e-02]
 [  5.55756707e-03]
 [  1.99647788e-02]
 [ -2.19486528e-01]
 [  2.90950191e-02]
 [ -2.64540317e-04]
 [  2.05442674e-01]
 [  5.49754042e-02]
 [ -8.47202503e-03]
 [ -8.70408316e-02]
 [  1.32637357e-01]
 [  1.19048974e-01]
 [  5.05069532e-02]
 [  2.15021503e-03]
 [  1.98466122e-02]
 [  2.37815860e-02]
 [  2.82079859e-03]
 [ -2.15433016e-03]
 [ -1.33724992e-02]
 [ -1.88895023e-02]
 [  4.41844111e-02]
 [ -7.21971138e-02]
 [  5.27840282e-02]
 [  8.06571247e-02]
 [ -1.15477641e-02]
 [ -1.15186699e-01]
 [ -5.89475087e-03]
 [  8.38692647e-02]
 [  8.59991585e-02]
 [  6.54860313e-02]
 [ -4.43728347e-02]
 [ -5.26439519e-02]
 [ -1.41881087e-02]
 [  2.89253158e-03]
 [  3.06264815e-02]
 [ -1.83388831e-02]
 [ -4.24140136e-02]
 [  9.26757182e-02]
 [  1.65977755e-02]
 [ -2.68467277e-02]
 [  2.93770519e-02]
 [  1.00574398e-02]
 [ -6.81201223e-02]]

Fold: 4
Lambda: 4.0
[[  6.01547955e-01]
 [ -2.08641189e-02]
 [  3.65083242e-02]
 [  1.25025145e-01]
 [ -6.46287155e-02]
 [ -1.63015325e-02]
 [  7.49155156e-02]
 [  4.53570024e-03]
 [ -1.46595279e-01]
 [ -7.51516465e-03]
 [ -1.65222466e-04]
 [ -5.03059380e-02]
 [  3.79195580e-02]
 [  3.56771115e-02]
 [ -9.63972804e-02]
 [  3.11627942e-02]
 [ -1.39717849e-01]
 [  1.16817818e-01]
 [  1.71568101e-03]
 [ -6.62276019e-02]
 [  9.47587474e-02]
 [  2.12327061e-02]
 [ -1.73843450e-01]
 [ -3.81392113e-02]
 [ -3.11723086e-02]
 [  1.26344501e-02]
 [  4.39965901e-02]
 [  2.25466912e-02]
 [ -8.64477818e-03]
 [ -1.16295289e-01]
 [ -8.91565517e-02]
 [  6.56934636e-02]
 [  2.26292593e-02]
 [ -5.69928195e-02]
 [  1.16692190e-01]
 [ -5.93016819e-02]
 [ -7.42880493e-03]
 [  5.87814955e-02]
 [  5.39636975e-02]
 [  1.06623570e-01]
 [  9.19161572e-02]
 [ -3.06639303e-02]
 [  5.90998111e-03]
 [  4.65043387e-02]
 [ -8.22644297e-02]
 [ -2.01857426e-01]
 [ -2.06813636e-02]
 [ -1.40736287e-02]
 [  2.79489155e-02]
 [ -1.47116352e-01]
 [ -6.30872292e-02]
 [  1.41501336e-01]
 [ -1.03923696e-01]
 [  3.16770729e-02]
 [ -2.58591415e-02]
 [ -2.26363026e-02]
 [  3.09346043e-02]
 [ -2.95735156e-02]
 [  1.82462586e-03]
 [  9.24391162e-02]
 [  1.98038447e-02]
 [ -4.78380874e-02]
 [ -1.57531256e-01]
 [ -5.96335490e-02]
 [ -3.68465413e-02]
 [  1.67244743e-01]
 [ -5.61541040e-02]
 [ -4.68158252e-02]
 [ -1.06726847e-01]
 [  9.91625790e-02]
 [  8.52025733e-02]
 [  1.66096553e-02]
 [  1.35352466e-01]
 [ -6.07075114e-02]
 [  4.19526800e-02]
 [  4.42112686e-02]
 [ -6.58344978e-02]
 [ -1.81321682e-02]
 [  2.00578024e-02]
 [ -8.14066032e-03]
 [ -7.92100577e-02]
 [  5.55756707e-03]
 [  1.99647788e-02]
 [ -2.19486528e-01]
 [  2.90950191e-02]
 [ -2.64540317e-04]
 [  2.05442674e-01]
 [  5.49754042e-02]
 [ -8.47202503e-03]
 [ -8.70408316e-02]
 [  1.32637357e-01]
 [  1.19048974e-01]
 [  5.05069532e-02]
 [  2.15021503e-03]
 [  1.98466122e-02]
 [  2.37815860e-02]
 [  2.82079859e-03]
 [ -2.15433016e-03]
 [ -1.33724992e-02]
 [ -1.88895023e-02]
 [  4.41844111e-02]
 [ -7.21971138e-02]
 [  5.27840282e-02]
 [  8.06571247e-02]
 [ -1.15477641e-02]
 [ -1.15186699e-01]
 [ -5.89475087e-03]
 [  8.38692647e-02]
 [  8.59991585e-02]
 [  6.54860313e-02]
 [ -4.43728347e-02]
 [ -5.26439519e-02]
 [ -1.41881087e-02]
 [  2.89253158e-03]
 [  3.06264815e-02]
 [ -1.83388831e-02]
 [ -4.24140136e-02]
 [  9.26757182e-02]
 [  1.65977755e-02]
 [ -2.68467277e-02]
 [  2.93770519e-02]
 [  1.00574398e-02]
 [ -6.81201223e-02]]

Fold: 0
Lambda: 4.5
[[ 0.62325704]
 [-0.04095481]
 [ 0.03812058]
 [ 0.15779379]
 [-0.09641781]
 [-0.0541148 ]
 [ 0.05623943]
 [ 0.02815292]
 [-0.16142589]
 [-0.0644913 ]
 [ 0.032432  ]
 [-0.06990019]
 [ 0.04447312]
 [ 0.08175937]
 [-0.09886948]
 [ 0.05571027]
 [-0.1747977 ]
 [ 0.08222659]
 [ 0.00355678]
 [-0.08841354]
 [ 0.06264901]
 [-0.01496772]
 [-0.16494657]
 [-0.03193234]
 [-0.02169798]
 [ 0.0241093 ]
 [ 0.03168731]
 [ 0.04657176]
 [-0.0184167 ]
 [-0.15292879]
 [-0.13777068]
 [ 0.07827459]
 [ 0.04917842]
 [-0.01774691]
 [ 0.08703954]
 [-0.03697244]
 [-0.00880753]
 [ 0.03915747]
 [ 0.02531863]
 [ 0.13998708]
 [ 0.17108173]
 [-0.08541041]
 [-0.03941263]
 [ 0.05212147]
 [-0.09416774]
 [-0.16092556]
 [-0.09016398]
 [-0.03368023]
 [ 0.0202349 ]
 [-0.12086523]
 [ 0.00871963]
 [ 0.06302056]
 [-0.14178532]
 [ 0.01613098]
 [ 0.00910721]
 [-0.02611575]
 [ 0.00701451]
 [-0.03292882]
 [ 0.02231349]
 [ 0.04247824]
 [ 0.02440842]
 [ 0.01833402]
 [-0.05959282]
 [-0.06288014]
 [-0.06635748]
 [ 0.18014546]
 [-0.09581396]
 [-0.01800692]
 [-0.09717903]
 [ 0.09428205]
 [ 0.06226464]
 [ 0.00200482]
 [ 0.1226732 ]
 [-0.06644344]
 [ 0.00369711]
 [ 0.0469888 ]
 [-0.07870369]
 [-0.01086675]
 [ 0.03978978]
 [-0.02728514]
 [-0.08362053]
 [ 0.01949609]
 [ 0.00850302]
 [-0.19100632]
 [ 0.02167215]
 [ 0.04654711]
 [ 0.13862414]
 [ 0.04070476]
 [-0.03121866]
 [-0.08856344]
 [ 0.0530667 ]
 [ 0.16540041]
 [ 0.10142   ]
 [-0.00299839]
 [ 0.02865221]
 [ 0.02831675]
 [ 0.0087684 ]
 [ 0.0073723 ]
 [-0.01337702]
 [-0.0057057 ]
 [ 0.04525764]
 [-0.06303477]
 [ 0.03373343]
 [ 0.10345255]
 [-0.01168782]
 [-0.05159955]
 [ 0.00568626]
 [ 0.05948642]
 [ 0.08688521]
 [ 0.07847859]
 [-0.01900944]
 [-0.04654289]
 [-0.0066613 ]
 [-0.01632887]
 [ 0.07444515]
 [ 0.01235619]
 [-0.04118861]
 [ 0.10564537]
 [ 0.0477417 ]
 [-0.01284969]
 [ 0.02287899]
 [ 0.00263855]
 [-0.0480056 ]]

Fold: 1
Lambda: 4.5
[[ 0.62325704]
 [-0.04095481]
 [ 0.03812058]
 [ 0.15779379]
 [-0.09641781]
 [-0.0541148 ]
 [ 0.05623943]
 [ 0.02815292]
 [-0.16142589]
 [-0.0644913 ]
 [ 0.032432  ]
 [-0.06990019]
 [ 0.04447312]
 [ 0.08175937]
 [-0.09886948]
 [ 0.05571027]
 [-0.1747977 ]
 [ 0.08222659]
 [ 0.00355678]
 [-0.08841354]
 [ 0.06264901]
 [-0.01496772]
 [-0.16494657]
 [-0.03193234]
 [-0.02169798]
 [ 0.0241093 ]
 [ 0.03168731]
 [ 0.04657176]
 [-0.0184167 ]
 [-0.15292879]
 [-0.13777068]
 [ 0.07827459]
 [ 0.04917842]
 [-0.01774691]
 [ 0.08703954]
 [-0.03697244]
 [-0.00880753]
 [ 0.03915747]
 [ 0.02531863]
 [ 0.13998708]
 [ 0.17108173]
 [-0.08541041]
 [-0.03941263]
 [ 0.05212147]
 [-0.09416774]
 [-0.16092556]
 [-0.09016398]
 [-0.03368023]
 [ 0.0202349 ]
 [-0.12086523]
 [ 0.00871963]
 [ 0.06302056]
 [-0.14178532]
 [ 0.01613098]
 [ 0.00910721]
 [-0.02611575]
 [ 0.00701451]
 [-0.03292882]
 [ 0.02231349]
 [ 0.04247824]
 [ 0.02440842]
 [ 0.01833402]
 [-0.05959282]
 [-0.06288014]
 [-0.06635748]
 [ 0.18014546]
 [-0.09581396]
 [-0.01800692]
 [-0.09717903]
 [ 0.09428205]
 [ 0.06226464]
 [ 0.00200482]
 [ 0.1226732 ]
 [-0.06644344]
 [ 0.00369711]
 [ 0.0469888 ]
 [-0.07870369]
 [-0.01086675]
 [ 0.03978978]
 [-0.02728514]
 [-0.08362053]
 [ 0.01949609]
 [ 0.00850302]
 [-0.19100632]
 [ 0.02167215]
 [ 0.04654711]
 [ 0.13862414]
 [ 0.04070476]
 [-0.03121866]
 [-0.08856344]
 [ 0.0530667 ]
 [ 0.16540041]
 [ 0.10142   ]
 [-0.00299839]
 [ 0.02865221]
 [ 0.02831675]
 [ 0.0087684 ]
 [ 0.0073723 ]
 [-0.01337702]
 [-0.0057057 ]
 [ 0.04525764]
 [-0.06303477]
 [ 0.03373343]
 [ 0.10345255]
 [-0.01168782]
 [-0.05159955]
 [ 0.00568626]
 [ 0.05948642]
 [ 0.08688521]
 [ 0.07847859]
 [-0.01900944]
 [-0.04654289]
 [-0.0066613 ]
 [-0.01632887]
 [ 0.07444515]
 [ 0.01235619]
 [-0.04118861]
 [ 0.10564537]
 [ 0.0477417 ]
 [-0.01284969]
 [ 0.02287899]
 [ 0.00263855]
 [-0.0480056 ]]

Fold: 2
Lambda: 4.5
[[ 0.62325704]
 [-0.04095481]
 [ 0.03812058]
 [ 0.15779379]
 [-0.09641781]
 [-0.0541148 ]
 [ 0.05623943]
 [ 0.02815292]
 [-0.16142589]
 [-0.0644913 ]
 [ 0.032432  ]
 [-0.06990019]
 [ 0.04447312]
 [ 0.08175937]
 [-0.09886948]
 [ 0.05571027]
 [-0.1747977 ]
 [ 0.08222659]
 [ 0.00355678]
 [-0.08841354]
 [ 0.06264901]
 [-0.01496772]
 [-0.16494657]
 [-0.03193234]
 [-0.02169798]
 [ 0.0241093 ]
 [ 0.03168731]
 [ 0.04657176]
 [-0.0184167 ]
 [-0.15292879]
 [-0.13777068]
 [ 0.07827459]
 [ 0.04917842]
 [-0.01774691]
 [ 0.08703954]
 [-0.03697244]
 [-0.00880753]
 [ 0.03915747]
 [ 0.02531863]
 [ 0.13998708]
 [ 0.17108173]
 [-0.08541041]
 [-0.03941263]
 [ 0.05212147]
 [-0.09416774]
 [-0.16092556]
 [-0.09016398]
 [-0.03368023]
 [ 0.0202349 ]
 [-0.12086523]
 [ 0.00871963]
 [ 0.06302056]
 [-0.14178532]
 [ 0.01613098]
 [ 0.00910721]
 [-0.02611575]
 [ 0.00701451]
 [-0.03292882]
 [ 0.02231349]
 [ 0.04247824]
 [ 0.02440842]
 [ 0.01833402]
 [-0.05959282]
 [-0.06288014]
 [-0.06635748]
 [ 0.18014546]
 [-0.09581396]
 [-0.01800692]
 [-0.09717903]
 [ 0.09428205]
 [ 0.06226464]
 [ 0.00200482]
 [ 0.1226732 ]
 [-0.06644344]
 [ 0.00369711]
 [ 0.0469888 ]
 [-0.07870369]
 [-0.01086675]
 [ 0.03978978]
 [-0.02728514]
 [-0.08362053]
 [ 0.01949609]
 [ 0.00850302]
 [-0.19100632]
 [ 0.02167215]
 [ 0.04654711]
 [ 0.13862414]
 [ 0.04070476]
 [-0.03121866]
 [-0.08856344]
 [ 0.0530667 ]
 [ 0.16540041]
 [ 0.10142   ]
 [-0.00299839]
 [ 0.02865221]
 [ 0.02831675]
 [ 0.0087684 ]
 [ 0.0073723 ]
 [-0.01337702]
 [-0.0057057 ]
 [ 0.04525764]
 [-0.06303477]
 [ 0.03373343]
 [ 0.10345255]
 [-0.01168782]
 [-0.05159955]
 [ 0.00568626]
 [ 0.05948642]
 [ 0.08688521]
 [ 0.07847859]
 [-0.01900944]
 [-0.04654289]
 [-0.0066613 ]
 [-0.01632887]
 [ 0.07444515]
 [ 0.01235619]
 [-0.04118861]
 [ 0.10564537]
 [ 0.0477417 ]
 [-0.01284969]
 [ 0.02287899]
 [ 0.00263855]
 [-0.0480056 ]]

Fold: 3
Lambda: 4.5
[[ 0.62325704]
 [-0.04095481]
 [ 0.03812058]
 [ 0.15779379]
 [-0.09641781]
 [-0.0541148 ]
 [ 0.05623943]
 [ 0.02815292]
 [-0.16142589]
 [-0.0644913 ]
 [ 0.032432  ]
 [-0.06990019]
 [ 0.04447312]
 [ 0.08175937]
 [-0.09886948]
 [ 0.05571027]
 [-0.1747977 ]
 [ 0.08222659]
 [ 0.00355678]
 [-0.08841354]
 [ 0.06264901]
 [-0.01496772]
 [-0.16494657]
 [-0.03193234]
 [-0.02169798]
 [ 0.0241093 ]
 [ 0.03168731]
 [ 0.04657176]
 [-0.0184167 ]
 [-0.15292879]
 [-0.13777068]
 [ 0.07827459]
 [ 0.04917842]
 [-0.01774691]
 [ 0.08703954]
 [-0.03697244]
 [-0.00880753]
 [ 0.03915747]
 [ 0.02531863]
 [ 0.13998708]
 [ 0.17108173]
 [-0.08541041]
 [-0.03941263]
 [ 0.05212147]
 [-0.09416774]
 [-0.16092556]
 [-0.09016398]
 [-0.03368023]
 [ 0.0202349 ]
 [-0.12086523]
 [ 0.00871963]
 [ 0.06302056]
 [-0.14178532]
 [ 0.01613098]
 [ 0.00910721]
 [-0.02611575]
 [ 0.00701451]
 [-0.03292882]
 [ 0.02231349]
 [ 0.04247824]
 [ 0.02440842]
 [ 0.01833402]
 [-0.05959282]
 [-0.06288014]
 [-0.06635748]
 [ 0.18014546]
 [-0.09581396]
 [-0.01800692]
 [-0.09717903]
 [ 0.09428205]
 [ 0.06226464]
 [ 0.00200482]
 [ 0.1226732 ]
 [-0.06644344]
 [ 0.00369711]
 [ 0.0469888 ]
 [-0.07870369]
 [-0.01086675]
 [ 0.03978978]
 [-0.02728514]
 [-0.08362053]
 [ 0.01949609]
 [ 0.00850302]
